{"learner":{"attributes":{"scikit_learn":"{\"_estimator_type\": \"classifier\"}"},"feature_names":["amount","log_amount","hour","day_of_week","latitude","longitude","is_fast"],"feature_types":["float","float","int","int","float","float","int"],"gradient_booster":{"model":{"cats":{"enc":[],"feature_segments":[],"sorted_idx":[]},"gbtree_model_param":{"num_parallel_tree":"1","num_trees":"200"},"iteration_indptr":[0,1,2,3,4,5,6,7,8,9,10,11,12,13,14,15,16,17,18,19,20,21,22,23,24,25,26,27,28,29,30,31,32,33,34,35,36,37,38,39,40,41,42,43,44,45,46,47,48,49,50,51,52,53,54,55,56,57,58,59,60,61,62,63,64,65,66,67,68,69,70,71,72,73,74,75,76,77,78,79,80,81,82,83,84,85,86,87,88,89,90,91,92,93,94,95,96,97,98,99,100,101,102,103,104,105,106,107,108,109,110,111,112,113,114,115,116,117,118,119,120,121,122,123,124,125,126,127,128,129,130,131,132,133,134,135,136,137,138,139,140,141,142,143,144,145,146,147,148,149,150,151,152,153,154,155,156,157,158,159,160,161,162,163,164,165,166,167,168,169,170,171,172,173,174,175,176,177,178,179,180,181,182,183,184,185,186,187,188,189,190,191,192,193,194,195,196,197,198,199,200],"tree_info":[0,0,0,0,0,0,0,0,0,0,0,0,0,0,0,0,0,0,0,0,0,0,0,0,0,0,0,0,0,0,0,0,0,0,0,0,0,0,0,0,0,0,0,0,0,0,0,0,0,0,0,0,0,0,0,0,0,0,0,0,0,0,0,0,0,0,0,0,0,0,0,0,0,0,0,0,0,0,0,0,0,0,0,0,0,0,0,0,0,0,0,0,0,0,0,0,0,0,0,0,0,0,0,0,0,0,0,0,0,0,0,0,0,0,0,0,0,0,0,0,0,0,0,0,0,0,0,0,0,0,0,0,0,0,0,0,0,0,0,0,0,0,0,0,0,0,0,0,0,0,0,0,0,0,0,0,0,0,0,0,0,0,0,0,0,0,0,0,0,0,0,0,0,0,0,0,0,0,0,0,0,0,0,0,0,0,0,0,0,0,0,0,0,0,0,0,0,0,0,0],"trees":[{"base_weights":[4.785137E-8,-1.0527841E0,1.2841238E0,-1.3458185E0,-7.5751925E-1,3.9664814E-1,1.7803435E0,-1.5146679E0,-1.04191E0,-6.809853E-1,-1.3629978E0,1.1528969E0,2.3363538E-1,1.4572881E0,1.9248288E0,-1.3822266E0,-9.928318E-2,-5.4155093E-1,-1.1891557E0,-1.0115287E0,-5.134241E-1,-9.838182E-2,-6.3384295E-1,-5.589192E-2,1.4010948E0,6.8348444E-1,-1.14687994E-1,1.4674132E0,-4.998752E-2,8.904407E-2,9.908357E-2,-9.32095E-1,-1.5356156E0,-1.0851338E0,6.8678457E-1,-8.3846396E-1,-9.8845385E-2,-9.734412E-2,-8.7767196E-1,1.1159661E-1,-6.2515867E-1,-1.404951E0,6.004185E-1,-8.854932E-2,1.2313439E0,1.4586734E0,-5.9985023E-2,4.8648846E-1,1.261871E0,6.7923374E-2,-7.908059E-1,1.28136E0,1.5427393E0,-9.7663485E-2,-2.2567201E-2,-6.952425E-2,-9.891149E-2,5.3255204E-3,-7.73455E-2,-8.258808E-2,6.250221E-2,-4.9549874E-2,1.766791E-2,3.811867E-2,-5.2539434E-2,-8.414463E-3,7.49099E-2,3.5575844E-2,-3.4850966E-2,-9.612985E-2,1.7434893E-2,7.7698655E-2,-8.516393E-2,-6.3620485E-2,8.9974016E-2,-5.554169E-2,7.540831E-2,8.760749E-3,4.6876196E-2,1.0894604E-2,7.162317E-2,-1.2500047E-2,3.1109814E-2,-9.62024E-2,3.9887982E-3,-6.6650026E-2,6.727535E-2,7.305083E-2,8.871246E-2],"categories":[],"categories_nodes":[],"categories_segments":[],"categories_sizes":[],"default_left":[0,0,0,0,0,0,0,0,0,0,0,0,0,0,0,0,0,0,0,0,0,0,0,0,0,0,0,0,0,0,0,0,0,0,0,0,0,0,0,0,0,0,0,0,0,0,0,0,0,0,0,0,0,0,0,0,0,0,0,0,0,0,0,0,0,0,0,0,0,0,0,0,0,0,0,0,0,0,0,0,0,0,0,0,0,0,0,0,0],"id":0,"left_children":[1,3,5,7,9,11,13,15,17,19,21,23,25,27,29,31,-1,33,35,37,39,-1,41,43,45,47,49,51,-1,-1,-1,53,55,57,59,61,-1,-1,63,65,67,69,71,-1,73,75,-1,77,79,81,83,85,87,-1,-1,-1,-1,-1,-1,-1,-1,-1,-1,-1,-1,-1,-1,-1,-1,-1,-1,-1,-1,-1,-1,-1,-1,-1,-1,-1,-1,-1,-1,-1,-1,-1,-1,-1,-1],"loss_changes":[5.123118E3,1.7915137E2,7.511184E2,5.198584E1,4.7242554E1,7.5364716E1,4.8291016E1,3.8975586E1,2.7059387E1,5.07052E1,4.9741623E1,3.264296E1,7.936213E1,9.985413E0,2.6342773E0,3.4839355E1,0E0,5.9056545E1,7.837073E1,3.711566E1,4.3073013E1,0E0,5.2146248E1,4.5125027E1,1.5240982E1,2.4561646E1,3.536855E1,2.8078003E0,0E0,0E0,0E0,6.591305E1,2.2318298E1,3.3691605E1,3.816103E1,3.7106277E1,0E0,0E0,7.83367E1,3.6823753E1,5.0687836E1,3.1058807E1,4.9717083E1,0E0,1.893517E1,1.2941544E1,0E0,2.3203926E1,9.573738E0,4.000229E1,6.023976E1,1.9283676E1,1.9129639E0,0E0,0E0,0E0,0E0,0E0,0E0,0E0,0E0,0E0,0E0,0E0,0E0,0E0,0E0,0E0,0E0,0E0,0E0,0E0,0E0,0E0,0E0,0E0,0E0,0E0,0E0,0E0,0E0,0E0,0E0,0E0,0E0,0E0,0E0,0E0,0E0],"parents":[2147483647,0,0,1,1,2,2,3,3,4,4,5,5,6,6,7,7,8,8,9,9,10,10,11,11,12,12,13,13,14,14,15,15,17,17,18,18,19,19,20,20,22,22,23,23,24,24,25,25,26,26,27,27,31,31,32,32,33,33,34,34,35,35,38,38,39,39,40,40,41,41,42,42,44,44,45,45,47,47,48,48,49,49,50,50,51,51,52,52],"right_children":[2,4,6,8,10,12,14,16,18,20,22,24,26,28,30,32,-1,34,36,38,40,-1,42,44,46,48,50,52,-1,-1,-1,54,56,58,60,62,-1,-1,64,66,68,70,72,-1,74,76,-1,78,80,82,84,86,88,-1,-1,-1,-1,-1,-1,-1,-1,-1,-1,-1,-1,-1,-1,-1,-1,-1,-1,-1,-1,-1,-1,-1,-1,-1,-1,-1,-1,-1,-1,-1,-1,-1,-1,-1,-1],"split_conditions":[1.7665927E2,6.0555847E1,3.4435715E2,3.354679E1,-7.485958E0,-7.7317204E0,5.037496E2,3.3505154E1,-7.6887197E0,-7.64869E0,1.19021904E2,3E0,3.3461754E1,1E0,7.0136835E2,1.064176E1,-9.928318E-2,3.3665173E1,3.3623074E1,7.245623E1,6.797266E1,-9.838182E-2,-7.4102273E0,3.3591732E1,2.2E1,2.9536166E2,3.3594166E1,3.986787E2,-4.998752E-2,8.904407E-2,9.908357E-2,3E0,-7.540224E0,-7.784778E0,4E0,3.3615395E1,-9.8845385E-2,-9.734412E-2,7.610356E1,2.2E1,-7.6440763E0,1.704674E2,1.3268706E2,-8.854932E-2,2.3945E2,-7.82559E0,-5.9985023E-2,5E0,-7.642844E0,3.3551933E1,4E0,2E0,3.359301E1,-9.7663485E-2,-2.2567201E-2,-6.952425E-2,-9.891149E-2,5.3255204E-3,-7.73455E-2,-8.258808E-2,6.250221E-2,-4.9549874E-2,1.766791E-2,3.811867E-2,-5.2539434E-2,-8.414463E-3,7.49099E-2,3.5575844E-2,-3.4850966E-2,-9.612985E-2,1.7434893E-2,7.7698655E-2,-8.516393E-2,-6.3620485E-2,8.9974016E-2,-5.554169E-2,7.540831E-2,8.760749E-3,4.6876196E-2,1.0894604E-2,7.162317E-2,-1.2500047E-2,3.1109814E-2,-9.62024E-2,3.9887982E-3,-6.6650026E-2,6.727535E-2,7.305083E-2,8.871246E-2],"split_indices":[0,0,0,4,5,5,0,4,5,5,0,3,4,6,0,0,0,4,4,0,0,0,5,4,2,0,4,0,0,0,0,3,5,5,3,4,0,0,0,2,5,0,0,0,0,5,0,3,5,4,3,2,4,0,0,0,0,0,0,0,0,0,0,0,0,0,0,0,0,0,0,0,0,0,0,0,0,0,0,0,0,0,0,0,0,0,0,0,0],"split_type":[0,0,0,0,0,0,0,0,0,0,0,0,0,0,0,0,0,0,0,0,0,0,0,0,0,0,0,0,0,0,0,0,0,0,0,0,0,0,0,0,0,0,0,0,0,0,0,0,0,0,0,0,0,0,0,0,0,0,0,0,0,0,0,0,0,0,0,0,0,0,0,0,0,0,0,0,0,0,0,0,0,0,0,0,0,0,0,0,0],"sum_hessian":[3.7875547E3,2.0813489E3,1.706206E3,1.0428341E3,1.0385146E3,6.125236E2,1.0936824E3,6.6781616E2,3.7501794E2,9.23861E2,1.14653595E2,1.0754206E2,5.0498157E2,3.4140924E2,7.5227313E2,5.2431616E2,1.435E2,8.633128E1,2.8868668E2,3.0909027E2,6.147708E2,6.175E1,5.290359E1,1.8451796E1,8.909026E1,2.1995462E2,2.8502695E2,3.4040924E2,1E0,2.221172E2,5.3015594E2,1.3505719E2,3.8925897E2,5.9927692E1,2.6403591E1,2.0118668E2,8.75E1,3.7E1,2.7209027E2,9.323488E1,5.215359E2,3.24759E1,2.0427692E1,7.75E0,1.0701796E1,8.759026E1,1.5E0,1.6544565E2,5.450898E1,2.2512334E2,5.990359E1,1.0329206E2,2.371172E2,4.225E1,9.280718E1,2.9625897E2,9.3E1,1.6951796E1,4.29759E1,4.75E0,2.1653591E1,1.7850897E2,2.2677692E1,2.5653591E1,2.4643668E2,7.830718E1,1.4927693E1,2.6153591E1,4.9538232E2,2.5E1,7.475898E0,1.4677693E1,5.75E0,1.75E0,8.951796E0,1.25E0,8.634026E1,9.871077E1,6.673488E1,7.975898E0,4.653308E1,1.4341257E2,8.171077E1,2.55E1,3.440359E1,2E0,1.0129206E2,1.8065642E2,5.6460773E1],"tree_param":{"num_deleted":"0","num_feature":"7","num_nodes":"89","size_leaf_vector":"1"}},{"base_weights":[-1.4874466E-4,-1.0016251E0,1.2219185E0,-1.2809763E0,-7.2036016E-1,3.7696812E-1,1.6950431E0,-1.4418527E0,-9.9155074E-1,-6.4731073E-1,-1.2992177E0,1.0959365E0,2.2216114E-1,1.3866601E0,1.8330978E0,-1.3154703E0,-9.459091E-2,1.9237728E-1,-1.046262E0,-9.6217144E-1,-4.8779225E-1,-9.3770266E-2,-6.048023E-1,-5.639427E-2,1.3324523E0,6.502284E-1,-1.0924949E-1,5.266863E-1,1.4023211E0,8.477991E-2,9.437119E-2,-8.8714194E-1,-1.4615256E0,1.0477002E0,-8.0754094E-2,-1.583286E0,-8.2167655E-1,-9.282477E-2,-8.3440894E-1,1.06752954E-1,-5.940877E-1,-1.3394631E0,5.7092416E-1,-8.477913E-2,1.1740468E0,-5.8325227E-2,1.3879743E0,4.6260583E-1,1.2015666E0,6.461738E-2,-7.5354886E-1,-6.479911E-2,6.3874535E-2,1.2185836E0,1.4787651E0,-9.311583E-2,-2.1453734E-2,-6.61419E-2,-9.4252564E-2,-6.438661E-2,8.088318E-2,-2.4937479E-2,-9.5770955E-2,6.2934436E-2,-4.588924E-2,3.6296815E-2,-4.9958672E-2,-1.5247916E-2,4.8596025E-2,-2.6179943E-2,-9.468709E-2,-9.171738E-2,1.6667068E-2,7.416667E-2,-8.1666276E-2,-6.163719E-2,8.6084835E-2,7.178225E-2,-5.3903323E-2,8.327238E-3,4.4591002E-2,1.0410819E-2,6.820317E-2,-1.1879879E-2,2.9580086E-2,-9.1783576E-2,3.795011E-3,-5.802549E-2,6.3230105E-2,7.525249E-2,4.5274977E-2],"categories":[],"categories_nodes":[],"categories_segments":[],"categories_sizes":[],"default_left":[0,0,0,0,0,0,0,0,0,0,0,0,0,0,0,0,0,0,0,0,0,0,0,0,0,0,0,0,0,0,0,0,0,0,0,0,0,0,0,0,0,0,0,0,0,0,0,0,0,0,0,0,0,0,0,0,0,0,0,0,0,0,0,0,0,0,0,0,0,0,0,0,0,0,0,0,0,0,0,0,0,0,0,0,0,0,0,0,0,0,0],"id":1,"left_children":[1,3,5,7,9,11,13,15,17,19,21,23,25,27,29,31,-1,33,35,37,39,-1,41,43,45,47,49,51,53,-1,-1,55,57,59,-1,61,63,-1,65,67,69,71,73,-1,75,-1,77,79,81,83,85,-1,-1,87,89,-1,-1,-1,-1,-1,-1,-1,-1,-1,-1,-1,-1,-1,-1,-1,-1,-1,-1,-1,-1,-1,-1,-1,-1,-1,-1,-1,-1,-1,-1,-1,-1,-1,-1,-1,-1],"loss_changes":[4.632167E3,1.6251953E2,6.808367E2,4.710388E1,4.3085632E1,6.800471E1,4.3969727E1,3.5484863E1,2.4530182E1,4.59599E1,4.5043564E1,2.9614517E1,7.1826904E1,3.8667603E0,2.4138184E0,3.1522888E1,0E0,2.864579E1,4.201651E1,3.3851257E1,3.8966904E1,0E0,4.7245743E1,4.1152836E1,1.41017E1,2.2290482E1,3.2080585E1,1.2216502E1,2.9064941E0,0E0,0E0,5.992617E1,2.039447E1,1.8643606E1,0E0,3.6806E1,5.2205658E1,0E0,7.0887115E1,3.3854877E1,4.6863617E1,2.827563E1,4.5452538E1,0E0,1.7520344E1,0E0,1.194783E1,2.0997551E1,8.666504E0,3.6149532E1,5.4750786E1,0E0,0E0,1.2873138E1,2.133789E0,0E0,0E0,0E0,0E0,0E0,0E0,0E0,0E0,0E0,0E0,0E0,0E0,0E0,0E0,0E0,0E0,0E0,0E0,0E0,0E0,0E0,0E0,0E0,0E0,0E0,0E0,0E0,0E0,0E0,0E0,0E0,0E0,0E0,0E0,0E0,0E0],"parents":[2147483647,0,0,1,1,2,2,3,3,4,4,5,5,6,6,7,7,8,8,9,9,10,10,11,11,12,12,13,13,14,14,15,15,17,17,18,18,19,19,20,20,22,22,23,23,24,24,25,25,26,26,27,27,28,28,31,31,32,32,33,33,35,35,36,36,38,38,39,39,40,40,41,41,42,42,44,44,46,46,47,47,48,48,49,49,50,50,53,53,54,54],"right_children":[2,4,6,8,10,12,14,16,18,20,22,24,26,28,30,32,-1,34,36,38,40,-1,42,44,46,48,50,52,54,-1,-1,56,58,60,-1,62,64,-1,66,68,70,72,74,-1,76,-1,78,80,82,84,86,-1,-1,88,90,-1,-1,-1,-1,-1,-1,-1,-1,-1,-1,-1,-1,-1,-1,-1,-1,-1,-1,-1,-1,-1,-1,-1,-1,-1,-1,-1,-1,-1,-1,-1,-1,-1,-1,-1,-1],"split_conditions":[1.7665927E2,6.0555847E1,3.4435715E2,3.354679E1,-7.485958E0,-7.7317204E0,5.037496E2,3.3505154E1,1.1931689E0,-7.64869E0,1.19021904E2,3E0,3.3461754E1,1E0,7.0136835E2,1.064176E1,-9.459091E-2,-7.6262884E0,1.764112E1,7.245623E1,6.797266E1,-9.3770266E-2,-7.4102273E0,3.3591732E1,-7.82559E0,2.9536166E2,3.3594166E1,3.3539158E1,3.986787E2,8.477991E-2,9.437119E-2,3E0,-7.540224E0,8.03252E-1,-8.0754094E-2,1E0,1.8063654E1,-9.282477E-2,7.610356E1,-7.521663E0,2.2E1,1.704674E2,1.3268706E2,-8.477913E-2,2.3945E2,-5.8325227E-2,2.2E1,5E0,-7.642844E0,3.3551933E1,4E0,-6.479911E-2,6.3874535E-2,2E0,2.2E1,-9.311583E-2,-2.1453734E-2,-6.61419E-2,-9.4252564E-2,-6.438661E-2,8.088318E-2,-2.4937479E-2,-9.5770955E-2,6.2934436E-2,-4.588924E-2,3.6296815E-2,-4.9958672E-2,-1.5247916E-2,4.8596025E-2,-2.6179943E-2,-9.468709E-2,-9.171738E-2,1.6667068E-2,7.416667E-2,-8.1666276E-2,-6.163719E-2,8.6084835E-2,7.178225E-2,-5.3903323E-2,8.327238E-3,4.4591002E-2,1.0410819E-2,6.820317E-2,-1.1879879E-2,2.9580086E-2,-9.1783576E-2,3.795011E-3,-5.802549E-2,6.3230105E-2,7.525249E-2,4.5274977E-2],"split_indices":[0,0,0,4,5,5,0,4,0,5,0,3,4,2,0,0,0,5,0,0,0,0,5,4,5,0,4,4,0,0,0,3,5,0,0,3,0,0,0,5,2,0,0,0,0,0,2,3,5,4,3,0,0,2,2,0,0,0,0,0,0,0,0,0,0,0,0,0,0,0,0,0,0,0,0,0,0,0,0,0,0,0,0,0,0,0,0,0,0,0,0],"split_type":[0,0,0,0,0,0,0,0,0,0,0,0,0,0,0,0,0,0,0,0,0,0,0,0,0,0,0,0,0,0,0,0,0,0,0,0,0,0,0,0,0,0,0,0,0,0,0,0,0,0,0,0,0,0,0,0,0,0,0,0,0,0,0,0,0,0,0,0,0,0,0,0,0,0,0,0,0,0,0,0,0,0,0,0,0,0,0,0,0,0,0],"sum_hessian":[3.782848E3,2.0791653E3,1.7036825E3,1.0413483E3,1.0378171E3,6.1218384E2,1.0914987E3,6.6675336E2,3.7459488E2,9.234054E2,1.1441171E2,1.0738366E2,5.0480017E2,3.4094632E2,7.505523E2,5.2361E2,1.431434E2,1.6434895E1,3.5815997E2,3.0881958E2,6.145859E2,6.1599304E1,5.2812405E1,1.8416761E1,8.8966896E1,2.1985806E2,2.849421E2,6.7173185E0,3.34229E2,2.216824E2,5.288699E2,1.3494322E2,3.8866672E2,1.1441101E1,4.993793E0,1.0383121E2,2.5432877E2,3.691159E1,2.71908E2,9.321267E1,5.2137317E2,3.2417095E1,2.039531E1,7.734657E0,1.0682105E1,1.4987906E0,8.746811E1,1.654081E2,5.4449963E1,2.2509814E2,5.9843967E1,1.7479157E0,4.969403E0,1.03177216E2,2.3105179E2,4.2148384E1,9.2794846E1,2.9589612E2,9.2770615E1,1.9974012E0,9.443701E0,2.4929354E1,7.8901855E1,1.0696425E1,2.4363234E2,2.5644518E1,2.4626346E2,6.3596317E1,2.9616356E1,4.9588113E2,2.5492043E1,2.4941734E1,7.475362E0,1.4655846E1,5.7394643E0,1.7482024E0,8.933903E0,8.621925E1,1.2488575E0,9.870909E1,6.6699005E1,7.9756827E0,4.647428E1,1.4340652E2,8.1691635E1,2.544048E1,3.4403484E1,1.4983103E0,1.0167891E2,2.1936818E2,1.1683599E1],"tree_param":{"num_deleted":"0","num_feature":"7","num_nodes":"91","size_leaf_vector":"1"}},{"base_weights":[-2.9525603E-4,-9.5468247E-1,1.1659797E0,-1.2220832E0,-6.8596613E-1,3.5863516E-1,1.619891E0,-1.3765599E0,-9.4474393E-1,-6.159655E-1,-1.243245E0,1.0446217E0,2.1138962E-1,1.3581494E0,8.857885E-2,-1.2550396E0,-9.0530664E-2,-4.7758123E-1,-1.0824131E0,-9.166947E-1,-4.638729E-1,-8.977117E-2,-5.7894653E-1,-5.696201E-2,1.2704211E0,6.19113E-1,-1.0414074E-1,1.2885175E0,1.6196605E0,-8.4568334E-1,-1.3948888E0,-9.910698E-1,6.796635E-1,-7.4945223E-1,-9.1682106E-2,-8.889585E-2,-7.942464E-1,-9.157404E-1,-3.2890695E-1,-1.2812114E0,5.4439926E-1,-8.143481E-2,1.122959E0,-5.6663003E-2,1.3240603E0,4.7826782E-1,1.300884E0,6.1486844E-2,-7.193918E-1,1.3294482E0,3.6838523E-1,1.7029965E0,-6.888377E-2,-8.916535E-2,-2.0399978E-2,-6.306467E-2,-9.021756E-2,6.346391E-3,-7.132001E-2,-7.716052E-2,6.0605157E-2,-6.2135976E-2,-1.9718561E-2,3.4584526E-2,-4.756519E-2,-6.61599E-2,-1.0299721E-2,-2.3990097E-2,1.2702462E-2,-8.8845566E-2,1.6097436E-2,7.098242E-2,-7.8540914E-2,-5.979031E-2,8.264574E-2,6.850905E-2,-5.247674E-2,-1.23424735E-2,3.1009665E-2,7.4681655E-2,-6.996762E-2,-1.1291302E-2,2.8138066E-2,-8.7931626E-2,3.610648E-3,6.9312386E-2,3.8983583E-2,-7.57101E-2,4.2939637E-2,4.8850928E-2,8.717456E-2],"categories":[],"categories_nodes":[],"categories_segments":[],"categories_sizes":[],"default_left":[0,0,0,0,0,0,0,0,0,0,0,0,0,0,0,0,0,0,0,0,0,0,0,0,0,0,0,0,0,0,0,0,0,0,0,0,0,0,0,0,0,0,0,0,0,0,0,0,0,0,0,0,0,0,0,0,0,0,0,0,0,0,0,0,0,0,0,0,0,0,0,0,0,0,0,0,0,0,0,0,0,0,0,0,0,0,0,0,0,0,0],"id":2,"left_children":[1,3,5,7,9,11,13,15,17,19,21,23,25,27,-1,29,-1,31,33,35,37,-1,39,41,43,45,47,49,51,53,55,57,59,61,-1,-1,63,65,67,69,71,-1,73,-1,75,77,79,81,83,85,87,89,-1,-1,-1,-1,-1,-1,-1,-1,-1,-1,-1,-1,-1,-1,-1,-1,-1,-1,-1,-1,-1,-1,-1,-1,-1,-1,-1,-1,-1,-1,-1,-1,-1,-1,-1,-1,-1,-1,-1],"loss_changes":[4.1985957E3,1.482229E2,6.2152075E2,4.3191406E1,3.968634E1,6.1619118E1,4.0725098E1,3.2793457E1,2.358142E1,4.1802185E1,4.104767E1,2.6920166E1,6.506949E1,5.2490845E0,0E0,2.8741089E1,0E0,5.2417496E1,7.081879E1,3.1180817E1,3.7215683E1,0E0,4.2948074E1,3.765466E1,1.305513E1,2.0559235E1,2.9158321E1,1.1676758E1,2.2534683E1,5.4931435E1,1.8949951E1,2.9733974E1,3.4247265E1,3.4833427E1,0E0,0E0,6.423065E1,4.048065E1,4.1926735E1,2.6998074E1,4.1670776E1,0E0,1.6263424E1,0E0,1.1085083E1,1.9129955E1,2.144432E1,3.2680107E1,5.004483E1,8.565308E0,1.5279545E1,6.2150574E-1,0E0,0E0,0E0,0E0,0E0,0E0,0E0,0E0,0E0,0E0,0E0,0E0,0E0,0E0,0E0,0E0,0E0,0E0,0E0,0E0,0E0,0E0,0E0,0E0,0E0,0E0,0E0,0E0,0E0,0E0,0E0,0E0,0E0,0E0,0E0,0E0,0E0,0E0,0E0],"parents":[2147483647,0,0,1,1,2,2,3,3,4,4,5,5,6,6,7,7,8,8,9,9,10,10,11,11,12,12,13,13,15,15,17,17,18,18,19,19,20,20,22,22,23,23,24,24,25,25,26,26,27,27,28,28,29,29,30,30,31,31,32,32,33,33,36,36,37,37,38,38,39,39,40,40,42,42,44,44,45,45,46,46,47,47,48,48,49,49,50,50,51,51],"right_children":[2,4,6,8,10,12,14,16,18,20,22,24,26,28,-1,30,-1,32,34,36,38,-1,40,42,44,46,48,50,52,54,56,58,60,62,-1,-1,64,66,68,70,72,-1,74,-1,76,78,80,82,84,86,88,90,-1,-1,-1,-1,-1,-1,-1,-1,-1,-1,-1,-1,-1,-1,-1,-1,-1,-1,-1,-1,-1,-1,-1,-1,-1,-1,-1,-1,-1,-1,-1,-1,-1,-1,-1,-1,-1,-1,-1],"split_conditions":[1.7665927E2,6.0555847E1,3.4435715E2,3.354679E1,-7.485958E0,-7.7317204E0,5.597262E2,3.3505154E1,-7.6887197E0,-7.64869E0,1.19021904E2,3E0,3.3461754E1,3.361209E1,8.857885E-2,1.064176E1,-9.0530664E-2,3.3665173E1,3.3623074E1,7.245623E1,2E0,-8.977117E-2,-7.4102273E0,3.3591732E1,-7.82559E0,3.0893198E2,3.3594166E1,2.1E1,-7.509493E0,3E0,-7.540224E0,-7.784778E0,4E0,1.1E1,-9.1682106E-2,-8.889585E-2,7.610356E1,-7.541354E0,3.3596104E1,3.3631012E1,1.3268706E2,-8.143481E-2,2.3945E2,-5.6663003E-2,2.2E1,-7.651965E0,4E0,3.3551933E1,4E0,3.356424E1,4.2212775E2,3.6058447E2,-6.888377E-2,-8.916535E-2,-2.0399978E-2,-6.306467E-2,-9.021756E-2,6.346391E-3,-7.132001E-2,-7.716052E-2,6.0605157E-2,-6.2135976E-2,-1.9718561E-2,3.4584526E-2,-4.756519E-2,-6.61599E-2,-1.0299721E-2,-2.3990097E-2,1.2702462E-2,-8.8845566E-2,1.6097436E-2,7.098242E-2,-7.8540914E-2,-5.979031E-2,8.264574E-2,6.850905E-2,-5.247674E-2,-1.23424735E-2,3.1009665E-2,7.4681655E-2,-6.996762E-2,-1.1291302E-2,2.8138066E-2,-8.7931626E-2,3.610648E-3,6.9312386E-2,3.8983583E-2,-7.57101E-2,4.2939637E-2,4.8850928E-2,8.717456E-2],"split_indices":[0,0,0,4,5,5,0,4,5,5,0,3,4,4,0,0,0,4,4,0,3,0,5,4,5,0,4,2,5,3,5,5,3,2,0,0,0,5,4,4,0,0,0,0,2,5,3,4,3,4,0,0,0,0,0,0,0,0,0,0,0,0,0,0,0,0,0,0,0,0,0,0,0,0,0,0,0,0,0,0,0,0,0,0,0,0,0,0,0,0,0],"split_type":[0,0,0,0,0,0,0,0,0,0,0,0,0,0,0,0,0,0,0,0,0,0,0,0,0,0,0,0,0,0,0,0,0,0,0,0,0,0,0,0,0,0,0,0,0,0,0,0,0,0,0,0,0,0,0,0,0,0,0,0,0,0,0,0,0,0,0,0,0,0,0,0,0,0,0,0,0,0,0,0,0,0,0,0,0,0,0,0,0,0,0],"sum_hessian":[3.770059E3,2.0734736E3,1.6965854E3,1.0375027E3,1.035971E3,6.112256E2,1.0853599E3,6.638036E2,3.736991E2,9.222331E2,1.1373783E2,1.0693643E2,5.0428918E2,4.0186902E2,6.8349084E2,5.216505E2,1.421531E2,8.607694E1,2.8762216E2,3.080686E2,6.141645E2,6.1180573E1,5.2557255E1,1.8318022E1,8.861841E1,2.1958401E2,2.8470517E2,3.2204584E2,7.982318E1,1.3462709E2,3.870234E2,5.9721237E1,2.6355701E1,2.0067592E2,8.6946236E1,3.666575E1,2.7140283E2,1.3992136E2,4.7424313E2,3.2253376E1,2.030388E1,7.69175E0,1.0626271E1,1.4950415E0,8.712337E1,1.8339784E2,3.6186165E1,2.2502719E2,5.9677986E1,3.0790433E2,1.4141498E1,7.8084015E1,1.7391688E0,4.186589E1,9.276121E1,2.9488998E2,9.213342E1,1.6935812E1,4.2785423E1,4.7261586E0,2.1629543E1,8.294774E1,1.1772819E2,2.5618584E1,2.4578426E2,8.834126E1,5.15801E1,3.768695E2,9.737363E1,2.4553127E1,7.7002482E0,1.4593941E1,5.7099385E0,1.7430992E0,8.883172E0,8.587745E1,1.2459201E0,2.989922E1,1.5349863E2,3.419229E1,1.9938722E0,1.4339037E2,8.163682E1,2.5274853E1,3.4403133E1,2.776933E2,3.0211031E1,2.4910724E0,1.1650425E1,5.4529014E0,7.263111E1],"tree_param":{"num_deleted":"0","num_feature":"7","num_nodes":"91","size_leaf_vector":"1"}},{"base_weights":[-4.9251283E-4,-7.603331E-1,1.3390524E0,-9.114347E-1,1.889703E-1,5.179631E-1,1.5529879E0,-1.1686765E0,-6.537857E-1,2.5681588E-1,-8.6371176E-2,5.786478E-1,-8.564951E-2,1.2640939E0,1.6832272E0,-1.3175331E0,-9.021335E-1,1.0167256E-1,-7.014846E-1,-2.5030836E-1,4.9953887E-1,7.616454E-1,-1.3793427E-1,4.4369024E-1,1.2792507E0,7.752883E-2,8.679473E-2,-1.1999302E0,-8.698577E-2,-7.2595054E-1,-1.2509205E0,-8.056718E-2,3.2014376E-1,-6.291876E-1,-1.2939423E0,6.8972373E-1,-6.891014E-1,1.1568766E0,2.487978E-1,1.4454796E0,6.258235E-1,-1.2422906E0,7.1531415E-1,5.908816E-2,-6.558221E-2,1.1040192E0,1.352528E0,-4.0362354E-2,-6.6723935E-2,-5.890466E-2,-2.5211407E-2,-2.1049965E-3,-8.7972604E-2,4.692998E-2,-9.181142E-3,-4.4818684E-2,-2.1728544E-2,-7.128739E-2,2.440212E-2,-7.318392E-2,4.8349906E-2,-7.1500363E-3,-9.375709E-2,-6.202447E-2,6.252404E-2,-8.498391E-2,1.6510757E-2,-6.5382205E-2,8.23615E-2,-3.407512E-2,3.6483083E-2,-9.550855E-2,2.9858058E-2,-7.9383925E-2,5.4441016E-2,-5.810828E-2,5.743887E-2,7.861557E-2,6.365191E-2],"categories":[],"categories_nodes":[],"categories_segments":[],"categories_sizes":[],"default_left":[0,0,0,0,0,0,0,0,0,0,0,0,0,0,0,0,0,0,0,0,0,0,0,0,0,0,0,0,0,0,0,0,0,0,0,0,0,0,0,0,0,0,0,0,0,0,0,0,0,0,0,0,0,0,0,0,0,0,0,0,0,0,0,0,0,0,0,0,0,0,0,0,0,0,0,0,0,0,0],"id":3,"left_children":[1,3,5,7,9,11,13,15,17,19,-1,21,-1,23,25,27,29,31,33,35,37,39,41,43,45,-1,-1,47,-1,49,51,-1,53,55,57,59,61,63,65,67,69,71,73,-1,-1,75,77,-1,-1,-1,-1,-1,-1,-1,-1,-1,-1,-1,-1,-1,-1,-1,-1,-1,-1,-1,-1,-1,-1,-1,-1,-1,-1,-1,-1,-1,-1,-1,-1],"loss_changes":[3.8193035E3,3.4360632E2,2.3776099E2,1.3614355E2,4.3296993E1,3.919896E1,3.8391113E1,3.9772705E1,3.7341156E1,3.9414917E1,0E0,3.623089E1,0E0,3.6433105E0,2.4729004E0,3.0694092E1,2.2020203E1,2.3830784E1,4.086154E1,4.3368355E1,3.5347595E1,1.9491943E1,5.4494102E1,1.1492124E1,2.7694702E0,0E0,0E0,2.6377258E1,0E0,2.4496658E1,7.605205E1,0E0,1.7646435E1,4.4803192E1,2.532785E1,2.1473007E1,4.5974636E1,1.4886505E1,2.5591537E1,2.1942116E1,2.5607826E1,3.2051846E1,2.9880276E1,0E0,0E0,1.181588E1,2.010315E0,0E0,0E0,0E0,0E0,0E0,0E0,0E0,0E0,0E0,0E0,0E0,0E0,0E0,0E0,0E0,0E0,0E0,0E0,0E0,0E0,0E0,0E0,0E0,0E0,0E0,0E0,0E0,0E0,0E0,0E0,0E0,0E0],"parents":[2147483647,0,0,1,1,2,2,3,3,4,4,5,5,6,6,7,7,8,8,9,9,11,11,13,13,14,14,15,15,16,16,17,17,18,18,19,19,20,20,21,21,22,22,23,23,24,24,27,27,29,29,30,30,32,32,33,33,34,34,35,35,36,36,37,37,38,38,39,39,40,40,41,41,42,42,45,45,46,46],"right_children":[2,4,6,8,10,12,14,16,18,20,-1,22,-1,24,26,28,30,32,34,36,38,40,42,44,46,-1,-1,48,-1,50,52,-1,54,56,58,60,62,64,66,68,70,72,74,-1,-1,76,78,-1,-1,-1,-1,-1,-1,-1,-1,-1,-1,-1,-1,-1,-1,-1,-1,-1,-1,-1,-1,-1,-1,-1,-1,-1,-1,-1,-1,-1,-1,-1,-1],"split_conditions":[2.3945E2,1.7665927E2,3.4435715E2,6.0555847E1,3.3657993E1,2.2E1,5.037496E2,3.354679E1,1E0,3E0,-8.6371176E-2,-7.5391836E0,-8.564951E-2,1E0,7.0136835E2,3.3505154E1,3.3623074E1,2E0,-7.485958E0,3.340453E1,-7.7095947E0,1E0,-7.4693003E0,-7.629731E0,3.986787E2,7.752883E-2,8.679473E-2,1.064176E1,-8.698577E-2,1.764112E1,-7.6887197E0,-8.056718E-2,8.4600426E1,-7.6252303E0,1.704674E2,-7.661944E0,1.3E1,-7.807017E0,-7.689971E0,3E0,4E0,2E1,3E0,5.908816E-2,-6.558221E-2,2E0,4E0,-4.0362354E-2,-6.6723935E-2,-5.890466E-2,-2.5211407E-2,-2.1049965E-3,-8.7972604E-2,4.692998E-2,-9.181142E-3,-4.4818684E-2,-2.1728544E-2,-7.128739E-2,2.440212E-2,-7.318392E-2,4.8349906E-2,-7.1500363E-3,-9.375709E-2,-6.202447E-2,6.252404E-2,-8.498391E-2,1.6510757E-2,-6.5382205E-2,8.23615E-2,-3.407512E-2,3.6483083E-2,-9.550855E-2,2.9858058E-2,-7.9383925E-2,5.4441016E-2,-5.810828E-2,5.743887E-2,7.861557E-2,6.365191E-2],"split_indices":[0,0,0,0,4,2,0,4,2,3,0,5,0,2,0,4,4,3,5,4,5,2,5,5,0,0,0,0,0,0,5,0,0,5,0,5,2,5,5,3,2,2,3,0,0,2,2,0,0,0,0,0,0,0,0,0,0,0,0,0,0,0,0,0,0,0,0,0,0,0,0,0,0,0,0,0,0,0,0],"split_type":[0,0,0,0,0,0,0,0,0,0,0,0,0,0,0,0,0,0,0,0,0,0,0,0,0,0,0,0,0,0,0,0,0,0,0,0,0,0,0,0,0,0,0,0,0,0,0,0,0,0,0,0,0,0,0,0,0,0,0,0,0,0,0,0,0,0,0,0,0,0,0,0,0,0,0,0,0,0,0],"sum_hessian":[3.7503586E3,2.3932493E3,1.3571093E3,2.0646558E3,3.2859344E2,2.8121625E2,1.0758931E3,1.0313752E3,1.0332806E3,3.1819446E2,1.0398966E1,2.7449042E2,6.7258463E0,3.376438E2,7.382492E2,6.5925616E2,3.7211902E2,6.129861E1,9.7198206E2,1.0298835E2,2.1520612E2,2.1860191E2,5.5888493E1,6.673928E0,3.3096988E2,2.1846135E2,5.197879E2,5.186292E2,1.4062697E2,2.4928094E2,1.2283806E2,6.212367E0,5.5086243E1,8.681095E2,1.0387256E2,3.25927E1,7.0395645E1,5.8425415E1,1.567807E2,3.4625816E1,1.8397609E2,2.416102E1,3.1727472E1,4.928415E0,1.7455127E0,1.0232982E2,2.2864005E2,1.3413951E2,3.8448972E2,8.060191E1,1.6867903E2,3.6694664E1,8.6143394E1,2.4340784E1,3.0745459E1,3.6432617E2,5.0378333E2,9.690485E1,6.9677153E0,3.229848E0,2.9362854E1,4.896895E1,2.1426699E1,1.7350637E0,5.6690353E1,5.491127E0,1.5128958E2,1.9898907E0,3.2635925E1,1.3128221E1,1.7084787E2,1.7697021E1,6.463999E0,3.9739356E0,2.7753538E1,1.4983928E0,1.0083142E2,5.5740818E1,1.7289923E2],"tree_param":{"num_deleted":"0","num_feature":"7","num_nodes":"79","size_leaf_vector":"1"}},{"base_weights":[-6.01434E-4,-7.26033E-1,1.2848403E0,-9.218877E-1,-5.4953583E-2,4.9276692E-1,1.4930898E0,-1.1188718E0,-6.748479E-1,-4.9737722E-1,1.8533504E-1,5.5084735E-1,-8.217503E-2,1.2441878E0,1.6387117E0,-1.2629405E0,-8.6184555E-1,-8.2335764E-1,-3.4556788E-1,1.6590972E-1,-7.9023355E-1,2.5423265E-1,-8.743401E-2,7.2547555E-1,-1.3292392E-1,1.1770046E0,1.4981858E0,1.5152072E0,8.3650894E-2,-1.1483444E0,-8.386664E-2,2.3784733E-1,-9.129277E-1,2.2640293E-2,-9.147003E-1,-1.435108E-1,-8.996929E-2,-8.2820736E-2,5.121259E-1,1.9493651E-1,-1.1364591E0,9.730891E-2,1.136028E0,1.0225313E0,4.433723E-1,-1.1846144E0,6.8085104E-1,1.2168281E0,2.9137027E-1,1.5803068E0,-6.885516E-2,7.764628E-2,1.1917635E0,-6.8126604E-2,-4.4893257E-2,5.167022E-2,-7.343383E-2,-7.063446E-2,-3.5282724E-2,-7.914477E-2,1.7781746E-2,-5.929766E-2,-2.2485001E-2,-8.7431096E-2,1.9392317E-4,-8.214667E-2,3.9871063E-2,-8.1513174E-2,3.021181E-2,-6.434752E-2,4.7743436E-2,-2.6791656E-2,2.0538818E-2,-6.616217E-2,6.378313E-2,-5.8085866E-2,5.298024E-2,-9.04329E-2,3.352331E-2,-9.113443E-2,2.8599715E-2,-7.637025E-2,5.197372E-2,6.359636E-2,3.4374926E-2,-7.507802E-2,3.838698E-2,4.4952836E-2,8.093994E-2,-7.129517E-2,7.329025E-2],"categories":[],"categories_nodes":[],"categories_segments":[],"categories_sizes":[],"default_left":[0,0,0,0,0,0,0,0,0,0,0,0,0,0,0,0,0,0,0,0,0,0,0,0,0,0,0,0,0,0,0,0,0,0,0,0,0,0,0,0,0,0,0,0,0,0,0,0,0,0,0,0,0,0,0,0,0,0,0,0,0,0,0,0,0,0,0,0,0,0,0,0,0,0,0,0,0,0,0,0,0,0,0,0,0,0,0,0,0,0,0],"id":4,"left_children":[1,3,5,7,9,11,13,15,17,19,21,23,-1,25,27,29,31,33,35,37,39,41,-1,43,45,47,49,51,-1,53,-1,55,57,59,61,63,-1,-1,65,67,69,71,73,75,77,79,81,83,85,87,-1,-1,89,-1,-1,-1,-1,-1,-1,-1,-1,-1,-1,-1,-1,-1,-1,-1,-1,-1,-1,-1,-1,-1,-1,-1,-1,-1,-1,-1,-1,-1,-1,-1,-1,-1,-1,-1,-1,-1,-1],"loss_changes":[3.4769805E3,3.1322668E2,2.2114233E2,8.902734E1,5.7450607E1,3.583568E1,3.6548584E1,3.6865723E1,3.986444E1,3.7071182E1,4.71314E1,3.2911873E1,0E0,5.0130005E0,2.9736328E-1,2.9162354E1,2.1075104E1,4.368933E1,7.521252E1,3.811881E1,4.5278427E1,4.682523E1,0E0,1.7904724E1,4.9378567E1,1.0885956E1,2.092453E1,5.1513672E-2,0E0,2.646045E1,0E0,2.4971395E1,3.5779785E1,3.0526182E1,6.3801575E1,5.3627808E1,0E0,0E0,3.230113E1,2.7284986E1,3.203794E1,5.7586445E1,1.925277E1,9.809814E0,5.95803E1,2.9201275E1,2.7429192E1,8.011749E0,1.3989207E1,5.810852E-1,0E0,0E0,1.6856064E1,0E0,0E0,0E0,0E0,0E0,0E0,0E0,0E0,0E0,0E0,0E0,0E0,0E0,0E0,0E0,0E0,0E0,0E0,0E0,0E0,0E0,0E0,0E0,0E0,0E0,0E0,0E0,0E0,0E0,0E0,0E0,0E0,0E0,0E0,0E0,0E0,0E0,0E0],"parents":[2147483647,0,0,1,1,2,2,3,3,4,4,5,5,6,6,7,7,8,8,9,9,10,10,11,11,13,13,14,14,15,15,16,16,17,17,18,18,19,19,20,20,21,21,23,23,24,24,25,25,26,26,27,27,29,29,31,31,32,32,33,33,34,34,35,35,38,38,39,39,40,40,41,41,42,42,43,43,44,44,45,45,46,46,47,47,48,48,49,49,52,52],"right_children":[2,4,6,8,10,12,14,16,18,20,22,24,-1,26,28,30,32,34,36,38,40,42,-1,44,46,48,50,52,-1,54,-1,56,58,60,62,64,-1,-1,66,68,70,72,74,76,78,80,82,84,86,88,-1,-1,90,-1,-1,-1,-1,-1,-1,-1,-1,-1,-1,-1,-1,-1,-1,-1,-1,-1,-1,-1,-1,-1,-1,-1,-1,-1,-1,-1,-1,-1,-1,-1,-1,-1,-1,-1,-1,-1,-1],"split_conditions":[2.3945E2,1.402724E2,3.4435715E2,6.0555847E1,3E0,2.2E1,5.597262E2,3.354679E1,5E0,3.342033E1,3.3657993E1,-7.5391836E0,-8.217503E-2,3.361209E1,7.0136835E2,3.3505154E1,1.1931689E0,6.4315636E1,1.2014882E2,-7.6440763E0,4E0,3.3615395E1,-8.743401E-2,3.3461754E1,-7.4693003E0,2.1E1,-7.509493E0,6E0,8.3650894E-2,4E0,-8.386664E-2,-7.6262884E0,1.764112E1,-7.638525E0,1.1084518E2,3.339452E1,-8.996929E-2,-8.2820736E-2,4E0,3.3488422E1,3.3695705E1,1.7444829E2,3E0,3.331096E1,3.349869E1,2E1,3E0,3.356424E1,4.2212775E2,3.6058447E2,-6.885516E-2,7.764628E-2,-7.651965E0,-6.8126604E-2,-4.4893257E-2,5.167022E-2,-7.343383E-2,-7.063446E-2,-3.5282724E-2,-7.914477E-2,1.7781746E-2,-5.929766E-2,-2.2485001E-2,-8.7431096E-2,1.9392317E-4,-8.214667E-2,3.9871063E-2,-8.1513174E-2,3.021181E-2,-6.434752E-2,4.7743436E-2,-2.6791656E-2,2.0538818E-2,-6.616217E-2,6.378313E-2,-5.8085866E-2,5.298024E-2,-9.04329E-2,3.352331E-2,-9.113443E-2,2.8599715E-2,-7.637025E-2,5.197372E-2,6.359636E-2,3.4374926E-2,-7.507802E-2,3.838698E-2,4.4952836E-2,8.093994E-2,-7.129517E-2,7.329025E-2],"split_indices":[0,0,0,0,3,2,0,4,3,4,4,5,0,4,0,4,0,0,0,5,2,4,0,4,5,2,5,3,0,3,0,5,0,5,0,4,0,0,2,4,4,0,2,4,4,2,3,4,0,0,0,0,5,0,0,0,0,0,0,0,0,0,0,0,0,0,0,0,0,0,0,0,0,0,0,0,0,0,0,0,0,0,0,0,0,0,0,0,0,0,0],"split_type":[0,0,0,0,0,0,0,0,0,0,0,0,0,0,0,0,0,0,0,0,0,0,0,0,0,0,0,0,0,0,0,0,0,0,0,0,0,0,0,0,0,0,0,0,0,0,0,0,0,0,0,0,0,0,0,0,0,0,0,0,0,0,0,0,0,0,0,0,0,0,0,0,0,0,0,0,0,0,0,0,0,0,0,0,0,0,0,0,0,0,0],"sum_hessian":[3.7266648E3,2.382532E3,1.3441328E3,1.8439894E3,5.385426E2,2.8052545E2,1.0636074E3,1.0239696E3,8.2001984E2,1.8916983E2,3.4937274E2,2.7382294E2,6.702499E0,3.9610852E2,6.6749884E2,6.536633E2,3.7030624E2,5.641018E2,2.5591798E2,5.807345E1,1.3109639E2,3.3819345E2,1.1179303E1,2.1806927E2,5.5753666E1,3.1770773E2,7.840081E1,1.5492511E2,5.125737E2,5.1501276E2,1.3865059E2,1.627535E1,3.540309E2,5.5044346E1,5.090575E2,2.256544E2,3.0263584E1,8.667474E0,4.9405975E1,3.420486E1,9.6891525E1,2.8804373E2,5.014972E1,1.0494118E2,1.13128105E2,2.4122717E1,3.1630947E1,3.0367853E2,1.4029206E1,7.666166E1,1.7391484E0,1.3534105E2,1.9584063E1,2.7522513E2,2.3978763E2,1.1369494E1,4.9058566E0,1.02082275E2,2.5194864E2,8.810577E0,4.623377E1,3.2052966E2,1.8852783E2,1.8064365E1,2.0759004E2,5.219591E0,4.4186382E1,5.718987E0,2.8485872E1,9.074609E1,6.145437E0,9.515007E1,1.9289365E2,2.2390258E0,4.7910694E1,1.2451538E0,1.0369602E2,9.724861E0,1.03403244E2,1.7667515E1,6.455202E0,3.9638848E0,2.7667063E1,2.7377756E2,2.990095E1,2.4932325E0,1.1535974E1,5.4024973E0,7.125916E1,1.4576108E0,1.8126451E1],"tree_param":{"num_deleted":"0","num_feature":"7","num_nodes":"91","size_leaf_vector":"1"}},{"base_weights":[-7.592851E-4,-6.938425E-1,1.2355093E0,-8.816502E-1,-5.2888017E-2,6.103996E-1,1.4858049E0,-1.0724388E0,-6.4362377E-1,-4.7493005E-1,1.7608951E-1,9.33618E-1,3.2427537E-1,1.2612709E0,1.5831885E0,-1.2126391E0,-8.2354474E-1,-7.855477E-1,-3.2961068E-1,1.5577345E-1,-7.536283E-1,4.7184178E-1,-2.4651223E-1,1.0100298E0,-8.343317E-2,-9.228157E-2,4.9554342E-1,1.1733882E0,1.4897233E0,1.4609046E0,8.0864206E-2,-1.100428E0,-8.110338E-2,-6.515316E-1,-1.1672076E0,2.037147E-2,-8.727665E-1,-1.3685137E-1,-8.637939E-2,-7.9741694E-2,4.8615956E-1,1.8360232E-1,-1.084525E0,2.289802E-1,1.2185657E0,-4.1667875E-3,-9.301671E-2,6.5182275E-1,1.3114842E0,1.2421579E0,3.2030144E-1,1.233111E0,2.7192664E-1,7.7510744E-2,6.429005E-1,7.489028E-2,1.145493E0,-3.595541E-2,-6.1617322E-2,-1.2218534E-3,-4.0349778E-2,-6.233888E-4,-8.3129145E-2,-7.6454654E-2,1.6906084E-2,-5.6658894E-2,-2.1402879E-2,-8.4052645E-2,1.8426997E-4,-7.8958236E-2,3.7947487E-2,2.9625883E-2,-7.85498E-2,4.603616E-2,-6.149981E-2,2.3370929E-2,-9.184953E-2,7.690944E-2,-7.6707066E-3,6.411966E-3,-8.328967E-2,-5.0291573E-3,6.0270656E-2,2.1428462E-2,6.851473E-2,6.791106E-2,-5.566842E-2,3.122974E-2,-1.0108991E-2,6.3030176E-2,1.8331638E-2,-9.4631605E-2,6.93271E-2,-6.426257E-2,7.083703E-2,-6.87287E-2,7.074711E-2],"categories":[],"categories_nodes":[],"categories_segments":[],"categories_sizes":[],"default_left":[0,0,0,0,0,0,0,0,0,0,0,0,0,0,0,0,0,0,0,0,0,0,0,0,0,0,0,0,0,0,0,0,0,0,0,0,0,0,0,0,0,0,0,0,0,0,0,0,0,0,0,0,0,0,0,0,0,0,0,0,0,0,0,0,0,0,0,0,0,0,0,0,0,0,0,0,0,0,0,0,0,0,0,0,0,0,0,0,0,0,0,0,0,0,0,0,0],"id":5,"left_children":[1,3,5,7,9,11,13,15,17,19,21,23,25,27,29,31,33,35,37,39,41,43,45,47,-1,-1,49,51,53,55,-1,57,-1,59,61,63,65,67,-1,-1,69,71,73,75,77,79,-1,81,83,85,87,89,91,-1,93,-1,95,-1,-1,-1,-1,-1,-1,-1,-1,-1,-1,-1,-1,-1,-1,-1,-1,-1,-1,-1,-1,-1,-1,-1,-1,-1,-1,-1,-1,-1,-1,-1,-1,-1,-1,-1,-1,-1,-1,-1,-1],"loss_changes":[3.1708845E3,2.8539954E2,2.0709436E2,8.259021E1,5.2116116E1,3.50063E1,1.8745117E1,3.446985E1,3.6214874E1,3.3452682E1,4.3833656E1,3.7228226E1,7.674799E1,4.1120605E0,3.7963867E-1,2.7989075E1,2.1074265E1,3.9587646E1,6.88783E1,3.4869686E1,4.1042175E1,3.7100147E1,5.6570667E1,1.796341E1,0E0,0E0,2.4450138E1,1.1266754E1,2.9671936E0,7.373047E-2,0E0,2.4857605E1,0E0,2.4198769E1,6.973508E1,2.8064016E1,5.8343903E1,4.915789E1,0E0,0E0,2.9569023E1,2.6200304E1,2.956752E1,7.8080956E1,2.231659E1,2.8106106E1,0E0,3.412084E1,4.275131E0,1.1287144E1,2.479469E1,4.345703E0,3.8024918E1,0E0,1.2067793E1,0E0,1.5766327E1,0E0,0E0,0E0,0E0,0E0,0E0,0E0,0E0,0E0,0E0,0E0,0E0,0E0,0E0,0E0,0E0,0E0,0E0,0E0,0E0,0E0,0E0,0E0,0E0,0E0,0E0,0E0,0E0,0E0,0E0,0E0,0E0,0E0,0E0,0E0,0E0,0E0,0E0,0E0,0E0],"parents":[2147483647,0,0,1,1,2,2,3,3,4,4,5,5,6,6,7,7,8,8,9,9,10,10,11,11,12,12,13,13,14,14,15,15,16,16,17,17,18,18,19,19,20,20,21,21,22,22,23,23,26,26,27,27,28,28,29,29,31,31,33,33,34,34,35,35,36,36,37,37,40,40,41,41,42,42,43,43,44,44,45,45,47,47,48,48,49,49,50,50,51,51,52,52,54,54,56,56],"right_children":[2,4,6,8,10,12,14,16,18,20,22,24,26,28,30,32,34,36,38,40,42,44,46,48,-1,-1,50,52,54,56,-1,58,-1,60,62,64,66,68,-1,-1,70,72,74,76,78,80,-1,82,84,86,88,90,92,-1,94,-1,96,-1,-1,-1,-1,-1,-1,-1,-1,-1,-1,-1,-1,-1,-1,-1,-1,-1,-1,-1,-1,-1,-1,-1,-1,-1,-1,-1,-1,-1,-1,-1,-1,-1,-1,-1,-1,-1,-1,-1,-1],"split_conditions":[2.3945E2,1.402724E2,3.986787E2,6.0555847E1,3E0,3.3462738E1,5.597262E2,3.354679E1,5E0,3.342033E1,-7.598574E0,2.1E1,3.3490868E1,3.359301E1,7.0136835E2,3.3505154E1,3.3623074E1,6.4315636E1,1.2014882E2,-7.6440763E0,4E0,-7.622432E0,1.9E1,3.0893198E2,-8.343317E-2,-9.228157E-2,-7.7416964E0,3.356424E1,-7.509493E0,6E0,8.0864206E-2,1.064176E1,-8.110338E-2,1E0,-7.6887197E0,-7.638525E0,1.1084518E2,3.339452E1,-8.637939E-2,-7.9741694E-2,4E0,3.3555367E1,1.4233066E2,-7.649505E0,1.4E1,3.3635204E1,-9.301671E-2,5E0,-7.7416964E0,1.8E1,3.3561573E1,2.2E1,-7.540224E0,7.7510744E-2,1.7E1,7.489028E-2,-7.651965E0,-3.595541E-2,-6.1617322E-2,-1.2218534E-3,-4.0349778E-2,-6.233888E-4,-8.3129145E-2,-7.6454654E-2,1.6906084E-2,-5.6658894E-2,-2.1402879E-2,-8.4052645E-2,1.8426997E-4,-7.8958236E-2,3.7947487E-2,2.9625883E-2,-7.85498E-2,4.603616E-2,-6.149981E-2,2.3370929E-2,-9.184953E-2,7.690944E-2,-7.6707066E-3,6.411966E-3,-8.328967E-2,-5.0291573E-3,6.0270656E-2,2.1428462E-2,6.851473E-2,6.791106E-2,-5.566842E-2,3.122974E-2,-1.0108991E-2,6.3030176E-2,1.8331638E-2,-9.4631605E-2,6.93271E-2,-6.426257E-2,7.083703E-2,-6.87287E-2,7.074711E-2],"split_indices":[0,0,0,0,3,4,0,4,3,4,5,2,4,4,0,4,4,0,0,5,2,5,2,0,0,0,5,4,5,3,0,0,0,3,5,5,0,4,0,0,2,4,0,5,2,4,0,3,5,2,4,2,5,0,2,0,5,0,0,0,0,0,0,0,0,0,0,0,0,0,0,0,0,0,0,0,0,0,0,0,0,0,0,0,0,0,0,0,0,0,0,0,0,0,0,0,0],"split_type":[0,0,0,0,0,0,0,0,0,0,0,0,0,0,0,0,0,0,0,0,0,0,0,0,0,0,0,0,0,0,0,0,0,0,0,0,0,0,0,0,0,0,0,0,0,0,0,0,0,0,0,0,0,0,0,0,0,0,0,0,0,0,0,0,0,0,0,0,0,0,0,0,0,0,0,0,0,0,0,0,0,0,0,0,0,0,0,0,0,0,0,0,0,0,0,0,0],"sum_hessian":[3.6986855E3,2.3702837E3,1.3284017E3,1.8328578E3,5.3742596E2,3.8079947E2,9.4760223E2,1.01543567E3,8.1742206E2,1.8864642E2,3.4877954E2,1.7774641E2,2.0305305E2,2.9088037E2,6.5672186E2,6.4707245E2,3.6836325E2,5.6194104E2,2.55481E2,5.794837E1,1.3069806E2,2.0511559E2,1.4366396E2,1.7327048E2,4.4759383E0,1.4139112E1,1.8891394E2,2.1450096E2,7.637942E1,1.5274594E2,5.0397595E2,5.107736E2,1.3629884E2,2.4741885E2,1.209444E2,5.4950863E1,5.069902E2,2.2548766E2,2.9993351E1,8.592479E0,4.9355892E1,3.421963E1,9.6478424E1,1.557626E2,4.9352978E1,1.2577855E2,1.7885412E1,8.0626854E1,9.2643616E1,3.475458E1,1.5415936E2,2.0082802E2,1.3672955E1,7.051187E1,5.8675394E0,1.3339133E2,1.9354605E1,1.3294312E2,3.7783047E2,4.9382378E1,1.9803647E2,3.6616055E1,8.432834E1,8.702431E0,4.6248432E1,3.1877484E2,1.8821533E2,1.7895237E1,2.0759242E2,5.1996717E0,4.4156223E1,2.828907E1,5.9305615E0,6.165186E0,9.031324E1,1.4033946E2,1.5423142E1,3.9929634E1,9.4233465E0,1.1735035E2,8.428197E0,3.4523266E1,4.610359E1,6.3030853E0,8.634053E1,3.352605E1,1.2285309E0,9.729769E1,5.686167E1,1.9421101E2,6.617001E0,4.4102774E0,9.262677E0,1.4911685E0,4.376371E0,1.4733582E0,1.7881247E1],"tree_param":{"num_deleted":"0","num_feature":"7","num_nodes":"97","size_leaf_vector":"1"}},{"base_weights":[-8.518028E-4,-6.4964676E-1,1.2166191E0,-7.985154E-1,1.8313693E-1,6.1643857E-1,1.4363743E0,-1.0294924E0,-5.7092935E-1,2.4073873E-1,-7.892375E-2,9.3888336E-1,3.3985925E-1,1.2139835E0,1.5334762E0,-1.166201E0,-7.8805226E-1,-5.067661E-1,-1.0920762E0,-2.3236454E-1,4.6562743E-1,1.0092342E0,-7.778829E-2,-8.7496385E-2,4.9806494E-1,1.1277043E0,1.4394804E0,1.4117033E0,7.837874E-2,-1.055903E0,-7.8640595E-2,-1.4304344E-1,-8.733395E-1,-7.7918583E-1,-3.7023523E-1,-8.1121475E-2,-4.6743292E-1,-4.699418E-2,-8.503314E-2,1.061106E0,2.4728051E-1,6.217659E-1,1.2604166E0,7.6880723E-1,4.1207824E-2,1.185785E0,2.5793633E-1,7.494263E-2,6.1615473E-1,7.239596E-2,1.1031576E0,-6.3315E-2,-4.0587287E-2,-3.206369E-2,5.340721E-2,-8.31348E-2,-3.178985E-2,-8.086241E-2,-3.3139877E-2,3.504993E-2,-2.1095535E-2,-5.77329E-2,3.033009E-2,3.503668E-2,-1.927961E-2,5.6660254E-2,-5.847333E-2,-8.494141E-2,1.6274689E-2,4.6756305E-2,-3.4088355E-2,2.056032E-2,6.587152E-2,4.1177668E-2,-6.403382E-2,-5.730265E-2,3.470633E-2,6.062572E-2,1.7571991E-2,-8.9954495E-2,6.687412E-2,-6.2213417E-2,6.862476E-2,-6.635569E-2,6.842478E-2],"categories":[],"categories_nodes":[],"categories_segments":[],"categories_sizes":[],"default_left":[0,0,0,0,0,0,0,0,0,0,0,0,0,0,0,0,0,0,0,0,0,0,0,0,0,0,0,0,0,0,0,0,0,0,0,0,0,0,0,0,0,0,0,0,0,0,0,0,0,0,0,0,0,0,0,0,0,0,0,0,0,0,0,0,0,0,0,0,0,0,0,0,0,0,0,0,0,0,0,0,0,0,0,0,0],"id":6,"left_children":[1,3,5,7,9,11,13,15,17,19,-1,21,23,25,27,29,31,33,35,37,39,41,-1,-1,43,45,47,49,-1,51,-1,53,55,57,59,-1,61,63,-1,65,67,69,71,73,75,77,79,-1,81,-1,83,-1,-1,-1,-1,-1,-1,-1,-1,-1,-1,-1,-1,-1,-1,-1,-1,-1,-1,-1,-1,-1,-1,-1,-1,-1,-1,-1,-1,-1,-1,-1,-1,-1,-1],"loss_changes":[2.8978254E3,2.9685242E2,1.6732812E2,1.0615039E2,3.7290947E1,3.032132E1,1.8281982E1,3.2302612E1,3.3721283E1,3.7677E1,0E0,2.9310837E1,6.2533875E1,3.9858093E0,4.6740723E-1,2.7066711E1,2.0061707E1,3.372554E1,3.6179E1,3.1066967E1,3.089967E1,1.4237228E1,0E0,0E0,2.1510262E1,1.0461151E1,2.7996979E0,9.298706E-2,0E0,2.5012024E1,0E0,2.7267338E1,5.9676926E1,2.8620407E1,3.412413E1,0E0,3.952668E1,2.6255476E1,0E0,1.1617676E1,2.7444286E1,2.6238611E1,3.944687E0,1.3318047E1,5.185087E1,4.0234375E0,3.4871742E1,0E0,1.1305904E1,0E0,1.4770948E1,0E0,0E0,0E0,0E0,0E0,0E0,0E0,0E0,0E0,0E0,0E0,0E0,0E0,0E0,0E0,0E0,0E0,0E0,0E0,0E0,0E0,0E0,0E0,0E0,0E0,0E0,0E0,0E0,0E0,0E0,0E0,0E0,0E0,0E0],"parents":[2147483647,0,0,1,1,2,2,3,3,4,4,5,5,6,6,7,7,8,8,9,9,11,11,12,12,13,13,14,14,15,15,16,16,17,17,18,18,19,19,20,20,21,21,24,24,25,25,26,26,27,27,29,29,31,31,32,32,33,33,34,34,36,36,37,37,39,39,40,40,41,41,42,42,43,43,44,44,45,45,46,46,48,48,50,50],"right_children":[2,4,6,8,10,12,14,16,18,20,-1,22,24,26,28,30,32,34,36,38,40,42,-1,-1,44,46,48,50,-1,52,-1,54,56,58,60,-1,62,64,-1,66,68,70,72,74,76,78,80,-1,82,-1,84,-1,-1,-1,-1,-1,-1,-1,-1,-1,-1,-1,-1,-1,-1,-1,-1,-1,-1,-1,-1,-1,-1,-1,-1,-1,-1,-1,-1,-1,-1,-1,-1,-1,-1],"split_conditions":[2.492527E2,1.7665927E2,3.986787E2,6.0555847E1,3.3657993E1,3.3462738E1,5.597262E2,3.354679E1,-7.485958E0,3E0,-7.892375E-2,2.1E1,3.3490868E1,3.359301E1,7.0136835E2,3.3505154E1,4.6101713E0,-7.64869E0,1.19021904E2,1.9E1,-7.7095947E0,3.0893198E2,-7.778829E-2,-8.7496385E-2,3.3561573E1,3.356424E1,-7.509493E0,6E0,7.837874E-2,4E0,-7.8640595E-2,3.7458766E0,1.764112E1,7.245623E1,-7.6440763E0,-8.1121475E-2,-7.4102273E0,3.340453E1,-8.503314E-2,2.2E1,-7.689971E0,3.3422794E1,-7.7416964E0,2.2E1,3.0057358E2,2.2E1,-7.540224E0,7.494263E-2,1.7E1,7.239596E-2,-7.651965E0,-6.3315E-2,-4.0587287E-2,-3.206369E-2,5.340721E-2,-8.31348E-2,-3.178985E-2,-8.086241E-2,-3.3139877E-2,3.504993E-2,-2.1095535E-2,-5.77329E-2,3.033009E-2,3.503668E-2,-1.927961E-2,5.6660254E-2,-5.847333E-2,-8.494141E-2,1.6274689E-2,4.6756305E-2,-3.4088355E-2,2.056032E-2,6.587152E-2,4.1177668E-2,-6.403382E-2,-5.730265E-2,3.470633E-2,6.062572E-2,1.7571991E-2,-8.9954495E-2,6.687412E-2,-6.2213417E-2,6.862476E-2,-6.635569E-2,6.842478E-2],"split_indices":[0,0,0,0,4,4,0,4,5,3,0,2,4,4,0,4,0,5,0,2,5,0,0,0,4,4,5,3,0,3,0,0,0,0,5,0,5,4,0,2,5,4,5,2,0,2,5,0,2,0,5,0,0,0,0,0,0,0,0,0,0,0,0,0,0,0,0,0,0,0,0,0,0,0,0,0,0,0,0,0,0,0,0,0,0],"split_type":[0,0,0,0,0,0,0,0,0,0,0,0,0,0,0,0,0,0,0,0,0,0,0,0,0,0,0,0,0,0,0,0,0,0,0,0,0,0,0,0,0,0,0,0,0,0,0,0,0,0,0,0,0,0,0,0,0,0,0,0,0,0,0,0,0,0,0,0,0,0,0,0,0,0,0,0,0,0,0,0,0,0,0,0,0],"sum_hessian":[3.6666482E3,2.3922666E3,1.2743817E3,2.0295117E3,3.6275482E2,3.4257336E2,9.318083E2,1.0055034E3,1.0240083E3,3.5210492E2,1.0649911E1,1.5706615E2,1.8550723E2,2.8730356E2,6.445047E2,6.395475E2,3.659559E2,9.135099E2,1.1049838E2,1.1343531E2,2.386696E2,1.5333736E2,3.7287774E0,1.2347271E1,1.7315996E2,2.1213701E2,7.5166565E1,1.50268E2,4.9423672E2,5.059102E2,1.336373E2,4.305062E1,3.2290527E2,3.034098E2,6.101001E2,5.8895653E1,5.160273E1,1.0163594E2,1.1799372E1,6.299878E1,1.7567082E2,6.1674717E1,9.166264E1,1.0829779E2,6.4862175E1,1.9851721E2,1.3619785E1,6.93454E1,5.8211656E0,1.3117816E2,1.908984E1,2.6949365E2,2.3641655E2,3.0836397E1,1.2214223E1,7.330669E1,2.495986E2,3.5426125E1,2.6798367E2,2.7498108E1,5.82602E2,3.142211E1,2.0180618E1,3.1345655E1,7.029028E1,6.1502785E1,1.4959958E0,5.9867806E0,1.6968404E2,4.9949768E1,1.1724952E1,6.283494E0,8.537915E1,1.0606279E2,2.2349977E0,2.274593E1,4.211624E1,1.9191568E2,6.601531E0,4.458256E0,9.16153E0,1.4960674E0,4.325098E0,1.4851868E0,1.7604652E1],"tree_param":{"num_deleted":"0","num_feature":"7","num_nodes":"85","size_leaf_vector":"1"}},{"base_weights":[-8.9072273E-4,-5.678325E-1,1.2862438E0,-7.64512E-1,2.1461654E-1,9.789606E-1,1.4718568E0,-9.8895913E-1,-5.448172E-1,2.690004E-1,-7.9900324E-2,6.45608E-1,1.0752678E0,6.725532E-2,7.614968E-2,-1.1229209E0,-7.539107E-1,1.6576675E-1,-5.9006524E-1,-1.6276712E-2,5.1802653E-1,8.960828E-1,-7.99946E-1,2.7113277E-1,1.0907545E0,-1.0141375E0,-7.643382E-2,-5.8720607E-1,-1.090816E0,-7.350957E-2,3.6955234E-1,-5.233194E-1,-1.1504381E0,2.5689477E-1,-6.612937E-1,1.1066936E0,2.9583925E-1,9.559258E-1,-6.13632E-2,-8.7619476E-2,3.9532714E-2,5.084139E-2,-6.9806725E-2,1.0284811E0,1.3006146E0,-3.206333E-2,-5.7233524E-2,-3.444938E-2,1.3959435E-2,1.2136063E-3,-7.911718E-2,4.7703896E-2,-5.562508E-3,-3.845937E-2,-1.7294459E-2,-7.847684E-2,-3.0279744E-2,2.047948E-2,-8.114812E-2,1.07750045E-2,-5.551969E-2,-5.565391E-2,5.8074754E-2,-9.04168E-2,1.9085081E-2,3.78892E-2,7.832219E-2,5.4696042E-2,-7.195994E-5,6.781941E-2,2.9256133E-2],"categories":[],"categories_nodes":[],"categories_segments":[],"categories_sizes":[],"default_left":[0,0,0,0,0,0,0,0,0,0,0,0,0,0,0,0,0,0,0,0,0,0,0,0,0,0,0,0,0,0,0,0,0,0,0,0,0,0,0,0,0,0,0,0,0,0,0,0,0,0,0,0,0,0,0,0,0,0,0,0,0,0,0,0,0,0,0,0,0,0,0],"id":7,"left_children":[1,3,5,7,9,11,13,15,17,19,-1,21,23,-1,-1,25,27,29,31,33,35,37,39,41,43,45,-1,47,49,-1,51,53,55,57,59,61,63,65,-1,-1,-1,-1,-1,67,69,-1,-1,-1,-1,-1,-1,-1,-1,-1,-1,-1,-1,-1,-1,-1,-1,-1,-1,-1,-1,-1,-1,-1,-1,-1,-1],"loss_changes":[2.6514873E3,3.8834888E2,6.19292E1,9.886902E1,5.045509E1,1.2834015E1,2.4282227E0,3.0514404E1,3.292566E1,3.5070587E1,0E0,3.5821846E1,3.757019E0,0E0,0E0,2.6361938E1,1.9837494E1,2.1180916E1,3.5308105E1,4.0872005E1,3.41429E1,1.1733528E1,2.387807E1,1.0719094E1,2.8306274E0,2.3681824E1,0E0,2.1892899E1,6.555138E1,0E0,1.5801025E1,3.724002E1,2.2192398E1,4.7451424E1,2.741113E1,1.0033272E1,3.550431E1,8.65892E0,0E0,0E0,0E0,0E0,0E0,1.6901123E1,1.9681168E0,0E0,0E0,0E0,0E0,0E0,0E0,0E0,0E0,0E0,0E0,0E0,0E0,0E0,0E0,0E0,0E0,0E0,0E0,0E0,0E0,0E0,0E0,0E0,0E0,0E0,0E0],"parents":[2147483647,0,0,1,1,2,2,3,3,4,4,5,5,6,6,7,7,8,8,9,9,11,11,12,12,15,15,16,16,17,17,18,18,19,19,20,20,21,21,22,22,23,23,24,24,25,25,27,27,28,28,30,30,31,31,32,32,33,33,34,34,35,35,36,36,37,37,43,43,44,44],"right_children":[2,4,6,8,10,12,14,16,18,20,-1,22,24,-1,-1,26,28,30,32,34,36,38,40,42,44,46,-1,48,50,-1,52,54,56,58,60,62,64,66,-1,-1,-1,-1,-1,68,70,-1,-1,-1,-1,-1,-1,-1,-1,-1,-1,-1,-1,-1,-1,-1,-1,-1,-1,-1,-1,-1,-1,-1,-1,-1,-1],"split_conditions":[3.0057358E2,1.7665927E2,5.037496E2,6.0555847E1,3.3657993E1,3.4435715E2,7.0136835E2,3.354679E1,1E0,4E0,-7.9900324E-2,-7.5527835E0,1E0,6.725532E-2,7.614968E-2,3.3505154E1,3.3623074E1,2E0,-7.485958E0,1.4E1,-7.7095947E0,2.1E1,-7.4102273E0,-7.629731E0,3.3591732E1,1.064176E1,-7.643382E-2,3.3615395E1,-7.6887197E0,-7.350957E-2,8.4600426E1,-7.6252303E0,1.19021904E2,3.358874E1,1E0,-7.801288E0,1.814279E2,-7.571391E0,-6.13632E-2,-8.7619476E-2,3.9532714E-2,5.084139E-2,-6.9806725E-2,3.3560528E1,-7.5122075E0,-3.206333E-2,-5.7233524E-2,-3.444938E-2,1.3959435E-2,1.2136063E-3,-7.911718E-2,4.7703896E-2,-5.562508E-3,-3.845937E-2,-1.7294459E-2,-7.847684E-2,-3.0279744E-2,2.047948E-2,-8.114812E-2,1.07750045E-2,-5.551969E-2,-5.565391E-2,5.8074754E-2,-9.04168E-2,1.9085081E-2,3.78892E-2,7.832219E-2,5.4696042E-2,-7.195994E-5,6.781941E-2,2.9256133E-2],"split_indices":[0,0,0,0,4,0,0,4,2,3,0,5,2,0,0,4,4,3,5,2,5,2,5,5,4,0,0,4,5,0,0,5,0,4,3,5,0,5,0,0,0,0,0,4,5,0,0,0,0,0,0,0,0,0,0,0,0,0,0,0,0,0,0,0,0,0,0,0,0,0,0],"split_type":[0,0,0,0,0,0,0,0,0,0,0,0,0,0,0,0,0,0,0,0,0,0,0,0,0,0,0,0,0,0,0,0,0,0,0,0,0,0,0,0,0,0,0,0,0,0,0,0,0,0,0,0,0,0,0,0,0,0,0,0,0,0,0,0,0,0,0,0,0,0,0],"sum_hessian":[3.6315154E3,2.521454E3,1.1100614E3,2.0149828E3,5.064712E2,4.2038553E2,6.896759E2,9.949794E2,1.0200035E3,4.9254504E2,1.3926165E1,9.595517E1,3.244304E2,2.0610815E2,4.8356775E2,6.3136584E2,3.636135E2,6.090327E1,9.591002E2,2.2999922E2,2.625458E2,8.2108185E1,1.3846984E1,6.4798274E0,3.1795056E2,5.0064252E2,1.3072336E2,2.4508531E2,1.1852817E2,6.057803E0,5.4845467E1,8.5874884E2,1.0035141E2,1.6199454E2,6.800467E1,7.085099E1,1.9169482E2,8.0392265E1,1.7159207E0,8.597268E0,5.2497163E0,4.7468805E0,1.7329471E0,2.4974306E2,6.82075E1,1.3135014E2,3.692924E2,2.1950345E2,2.5581871E1,3.6553307E1,8.197486E1,2.4308535E1,3.0536932E1,3.585563E2,5.001925E2,5.5658E1,4.469341E1,1.5054811E2,1.1446428E1,2.3210382E1,4.479429E1,1.2417533E0,6.960924E1,6.729061E0,1.8496576E2,6.238621E1,1.8006052E1,2.347643E2,1.4978754E1,6.2444145E1,5.76335E0],"tree_param":{"num_deleted":"0","num_feature":"7","num_nodes":"71","size_leaf_vector":"1"}},{"base_weights":[-9.067807E-4,-5.366631E-1,1.2616533E0,-7.324651E-1,2.096094E-1,9.7043014E-1,1.4309555E0,-9.5124567E-1,-5.1996315E-1,7.946205E-1,8.9267306E-2,9.819295E-1,-6.253919E-2,1.3031864E0,7.414057E-2,-1.0825478E0,-7.223142E-1,1.5711279E-1,-5.6320405E-1,-5.2179086E-1,1.0236155E0,2.06422E-1,-7.838676E-1,8.143602E-1,1.108801E0,6.907E-2,1.1970268E0,-9.7498125E-1,-7.444694E-2,-6.2742937E-1,-1.3117214E0,-7.120946E-2,3.5178974E-1,-4.988444E-1,-1.1090665E0,-7.4286155E-2,6.564672E-1,1.079528E0,-5.4304715E-2,2.4317525E-1,-8.195576E-2,-1.0250348E0,6.2848456E-2,1.1465116E0,4.4061345E-1,1.0243946E0,1.3091868E0,1.2457763E0,-7.192349E-2,-5.9176423E-2,-3.6766708E-2,-4.5528136E-2,-1.1524483E-2,-8.293256E-2,6.938072E-2,4.538044E-2,-5.2954145E-3,-3.6747273E-2,-1.6456893E-2,-6.1827302E-2,2.614802E-2,-5.035464E-2,6.813251E-2,3.910893E-2,6.804504E-2,1.9521333E-2,-2.9624978E-3,2.4498368E-2,-6.539234E-2,5.9474647E-2,-5.452479E-2,-8.110455E-2,2.98491E-2,5.415943E-2,-7.797597E-2,6.885963E-2,2.7058227E-2,4.8938483E-2,6.502158E-2],"categories":[],"categories_nodes":[],"categories_segments":[],"categories_sizes":[],"default_left":[0,0,0,0,0,0,0,0,0,0,0,0,0,0,0,0,0,0,0,0,0,0,0,0,0,0,0,0,0,0,0,0,0,0,0,0,0,0,0,0,0,0,0,0,0,0,0,0,0,0,0,0,0,0,0,0,0,0,0,0,0,0,0,0,0,0,0,0,0,0,0,0,0,0,0,0,0,0,0],"id":8,"left_children":[1,3,5,7,9,11,13,15,17,19,21,23,-1,25,-1,27,29,31,33,35,37,39,41,43,45,-1,47,49,-1,51,53,-1,55,57,59,-1,61,63,-1,65,-1,67,-1,69,71,73,75,77,-1,-1,-1,-1,-1,-1,-1,-1,-1,-1,-1,-1,-1,-1,-1,-1,-1,-1,-1,-1,-1,-1,-1,-1,-1,-1,-1,-1,-1,-1,-1],"loss_changes":[2.4324883E3,3.6907312E2,5.1434082E1,9.249817E1,3.6926674E1,1.1367676E1,2.5424805E0,2.8806702E1,2.9859924E1,2.7524368E1,4.4862217E1,7.504883E0,0E0,3.387451E-2,0E0,2.5806396E1,1.9410416E1,1.9533512E1,3.303424E1,1.679575E1,1.0208717E1,2.6586424E1,2.6835554E1,2.1117035E1,2.4189758E0,0E0,1.3831268E1,2.3916046E1,0E0,3.5028023E1,4.842267E1,0E0,1.4304253E1,3.4097626E1,2.1455093E1,0E0,9.550436E0,5.221245E0,0E0,1.6919466E1,0E0,2.0766064E1,0E0,1.0103966E1,2.7926477E1,2.6150757E1,2.5081253E0,7.765198E-2,0E0,0E0,0E0,0E0,0E0,0E0,0E0,0E0,0E0,0E0,0E0,0E0,0E0,0E0,0E0,0E0,0E0,0E0,0E0,0E0,0E0,0E0,0E0,0E0,0E0,0E0,0E0,0E0,0E0,0E0,0E0],"parents":[2147483647,0,0,1,1,2,2,3,3,4,4,5,5,6,6,7,7,8,8,9,9,10,10,11,11,13,13,15,15,16,16,17,17,18,18,19,19,20,20,21,21,22,22,23,23,24,24,26,26,27,27,29,29,30,30,32,32,33,33,34,34,36,36,37,37,39,39,41,41,43,43,44,44,45,45,46,46,47,47],"right_children":[2,4,6,8,10,12,14,16,18,20,22,24,-1,26,-1,28,30,32,34,36,38,40,42,44,46,-1,48,50,-1,52,54,-1,56,58,60,-1,62,64,-1,66,-1,68,-1,70,72,74,76,78,-1,-1,-1,-1,-1,-1,-1,-1,-1,-1,-1,-1,-1,-1,-1,-1,-1,-1,-1,-1,-1,-1,-1,-1,-1,-1,-1,-1,-1,-1,-1],"split_conditions":[3.0893198E2,1.7665927E2,5.037496E2,6.0555847E1,-7.7317204E0,1E0,7.0136835E2,3.354679E1,1E0,3E0,3.3594166E1,3.986787E2,-6.253919E-2,3E0,7.414057E-2,3.3505154E1,4.874189E1,2E0,-7.485958E0,3.3591732E1,2.2E1,2.3E1,2.3E1,3.3462738E1,3.3586365E1,6.907E-2,2.1E1,4E0,-7.444694E-2,2.7938744E1,-7.365777E0,-7.120946E-2,8.4600426E1,-7.6252303E0,1.704674E2,-7.4286155E-2,2.3945E2,-7.7490516E0,-5.4304715E-2,1.4E1,-8.195576E-2,1E0,6.2848456E-2,2.1E1,3.3490868E1,3.3560528E1,-7.4936075E0,5.597262E2,-7.192349E-2,-5.9176423E-2,-3.6766708E-2,-4.5528136E-2,-1.1524483E-2,-8.293256E-2,6.938072E-2,4.538044E-2,-5.2954145E-3,-3.6747273E-2,-1.6456893E-2,-6.1827302E-2,2.614802E-2,-5.035464E-2,6.813251E-2,3.910893E-2,6.804504E-2,1.9521333E-2,-2.9624978E-3,2.4498368E-2,-6.539234E-2,5.9474647E-2,-5.452479E-2,-8.110455E-2,2.98491E-2,5.415943E-2,-7.797597E-2,6.885963E-2,2.7058227E-2,4.8938483E-2,6.502158E-2],"split_indices":[0,0,0,0,5,6,0,4,2,3,4,0,0,3,0,4,0,3,5,4,2,2,2,4,4,0,2,3,0,0,5,0,0,5,0,0,0,5,0,2,0,2,0,2,4,4,5,0,0,0,0,0,0,0,0,0,0,0,0,0,0,0,0,0,0,0,0,0,0,0,0,0,0,0,0,0,0,0,0],"split_type":[0,0,0,0,0,0,0,0,0,0,0,0,0,0,0,0,0,0,0,0,0,0,0,0,0,0,0,0,0,0,0,0,0,0,0,0,0,0,0,0,0,0,0,0,0,0,0,0,0,0,0,0,0,0,0,0,0,0,0,0,0,0,0,0,0,0,0,0,0,0,0,0,0,0,0,0,0,0,0],"sum_hessian":[3.5940957E3,2.5237427E3,1.0703531E3,1.9992194E3,5.2452325E2,3.959671E2,6.7438605E2,9.833445E2,1.0158749E3,8.85343E1,4.3598895E2,3.944828E2,1.484326E0,2.0223189E2,4.7215417E2,6.22554E2,3.6079047E2,6.082532E1,9.5504956E2,1.2929361E1,7.560494E1,3.8508322E2,5.0905754E1,1.7317532E2,2.2130746E2,1.0952577E2,9.2706116E1,4.949469E2,1.2760711E2,3.1254102E2,4.824943E1,5.97517E0,5.485015E1,8.5603314E2,9.9016396E1,6.9679427E0,5.961418E0,7.4128654E1,1.4762836E0,3.7841544E2,6.6677794E0,4.5971058E1,4.934695E0,9.059516E1,8.258016E1,1.6001717E2,6.1290295E1,9.1540184E1,1.1659327E0,2.6253952E2,2.3240736E2,1.8166624E2,1.3087477E2,4.309608E1,5.1533527E0,2.4326077E1,3.0524073E1,3.565956E2,4.9943753E2,9.206724E1,6.9491577E0,1.6495218E0,4.3118963E0,3.787888E1,3.624978E1,2.5430354E2,1.24111885E2,7.116428E0,3.885463E1,8.934674E1,1.2484231E0,5.1585584E0,7.74216E1,1.5702504E2,2.9921284E0,5.5576054E1,5.714241E0,1.8766861E1,7.277332E1],"tree_param":{"num_deleted":"0","num_feature":"7","num_nodes":"79","size_leaf_vector":"1"}},{"base_weights":[-8.6019695E-4,-5.138009E-1,1.2235248E0,-7.018905E-1,1.9974652E-1,9.3409705E-1,1.3937069E0,-9.1516924E-1,-4.9631467E-1,-1.796908E-1,3.777771E-1,9.45374E-1,-6.0624946E-2,1.2646222E0,7.232153E-2,-9.667081E-1,-3.5094073E-1,-7.9208195E-1,-3.9890283E-1,3.3169472E-1,-5.8193135E-1,9.344919E-1,1.7950742E-1,7.812366E-1,1.0703632E0,6.711405E-2,1.1595465E0,-8.87376E-1,-7.807731E-2,1.2055707E0,-7.772681E-1,-1.2295781E0,-3.9649734E-1,-4.9244004E-1,1.7248103E-1,-8.153612E-2,4.9498707E-1,-5.1764376E-2,-1.3213063E0,9.9297875E-1,-5.9531864E-2,2.3980968E-1,-7.499357E-2,1.1052171E0,4.2007673E-1,9.8701096E-1,1.2693471E0,1.2080642E0,-6.9357745E-2,-3.6613114E-2,-5.9758384E-2,-5.795734E-2,8.153092E-2,-6.167656E-2,7.228955E-2,4.3164667E-2,-6.765518E-2,-4.230484E-2,1.70747E-2,-1.8297812E-2,-4.07228E-2,7.311565E-2,-7.886241E-3,6.5024324E-2,7.3143924E-3,8.9478595E-3,-8.259571E-2,4.295549E-3,-8.7691896E-2,4.1194137E-2,6.326295E-2,1.911005E-2,-2.2732507E-2,5.7372488E-2,-5.3064924E-2,-7.8066096E-2,2.8517693E-2,5.2222736E-2,-7.497092E-2,6.6835046E-2,2.6028726E-2,4.7267176E-2,6.311104E-2],"categories":[],"categories_nodes":[],"categories_segments":[],"categories_sizes":[],"default_left":[0,0,0,0,0,0,0,0,0,0,0,0,0,0,0,0,0,0,0,0,0,0,0,0,0,0,0,0,0,0,0,0,0,0,0,0,0,0,0,0,0,0,0,0,0,0,0,0,0,0,0,0,0,0,0,0,0,0,0,0,0,0,0,0,0,0,0,0,0,0,0,0,0,0,0,0,0,0,0,0,0,0,0],"id":9,"left_children":[1,3,5,7,9,11,13,15,17,19,21,23,-1,25,-1,27,29,31,33,35,37,39,41,43,45,-1,47,49,-1,51,53,55,57,59,61,-1,63,65,67,69,-1,71,-1,73,75,77,79,81,-1,-1,-1,-1,-1,-1,-1,-1,-1,-1,-1,-1,-1,-1,-1,-1,-1,-1,-1,-1,-1,-1,-1,-1,-1,-1,-1,-1,-1,-1,-1,-1,-1,-1,-1],"loss_changes":[2.2339558E3,3.3658484E2,5.0426636E1,8.6539E1,3.5446404E1,1.0633026E1,2.657959E0,2.7944397E1,2.8854935E1,3.4736828E1,3.9215073E1,7.1732483E0,0E0,6.866455E-2,0E0,4.06438E1,5.599945E1,4.27502E1,4.0898758E1,2.4703773E1,3.6920162E1,1.2798805E1,2.712875E1,1.9717026E1,2.3783417E0,0E0,1.30410385E1,3.6753662E1,0E0,2.0216276E1,6.846807E1,3.1714127E1,4.431112E1,2.6440414E1,4.6299862E1,0E0,1.9361921E1,2.096867E1,2.4110565E1,3.1705246E0,0E0,2.5491539E1,0E0,9.480484E0,2.5655655E1,2.4246948E1,2.3875504E0,9.863281E-2,0E0,0E0,0E0,0E0,0E0,0E0,0E0,0E0,0E0,0E0,0E0,0E0,0E0,0E0,0E0,0E0,0E0,0E0,0E0,0E0,0E0,0E0,0E0,0E0,0E0,0E0,0E0,0E0,0E0,0E0,0E0,0E0,0E0,0E0,0E0],"parents":[2147483647,0,0,1,1,2,2,3,3,4,4,5,5,6,6,7,7,8,8,9,9,10,10,11,11,13,13,15,15,16,16,17,17,18,18,19,19,20,20,21,21,22,22,23,23,24,24,26,26,27,27,29,29,30,30,31,31,32,32,33,33,34,34,36,36,37,37,38,38,39,39,41,41,43,43,44,44,45,45,46,46,47,47],"right_children":[2,4,6,8,10,12,14,16,18,20,22,24,-1,26,-1,28,30,32,34,36,38,40,42,44,46,-1,48,50,-1,52,54,56,58,60,62,-1,64,66,68,70,-1,72,-1,74,76,78,80,82,-1,-1,-1,-1,-1,-1,-1,-1,-1,-1,-1,-1,-1,-1,-1,-1,-1,-1,-1,-1,-1,-1,-1,-1,-1,-1,-1,-1,-1,-1,-1,-1,-1,-1,-1],"split_conditions":[3.0893198E2,1.7665927E2,5.037496E2,6.0555847E1,3E0,1E0,7.0136835E2,2.2E1,2E0,1E0,-7.7095947E0,3.986787E2,-6.0624946E-2,3E0,7.232153E-2,-7.495979E0,1.5965636E0,1.07373566E2,3.3615395E1,4E0,1E1,2.2E1,3.3654854E1,3.3462738E1,3.3586365E1,6.711405E-2,2.1E1,1.4E1,-7.807731E-2,8.03252E-1,-7.416008E0,6.1118122E1,-7.541354E0,3.352952E1,3.361893E1,-8.153612E-2,3.3384098E1,2.596397E2,-7.674106E0,3.356976E1,-5.9531864E-2,6E0,-7.499357E-2,2.1E1,3.3490868E1,3.3560528E1,-7.4936075E0,5.597262E2,-6.9357745E-2,-3.6613114E-2,-5.9758384E-2,-5.795734E-2,8.153092E-2,-6.167656E-2,7.228955E-2,4.3164667E-2,-6.765518E-2,-4.230484E-2,1.70747E-2,-1.8297812E-2,-4.07228E-2,7.311565E-2,-7.886241E-3,6.5024324E-2,7.3143924E-3,8.9478595E-3,-8.259571E-2,4.295549E-3,-8.7691896E-2,4.1194137E-2,6.326295E-2,1.911005E-2,-2.2732507E-2,5.7372488E-2,-5.3064924E-2,-7.8066096E-2,2.8517693E-2,5.2222736E-2,-7.497092E-2,6.6835046E-2,2.6028726E-2,4.7267176E-2,6.311104E-2],"split_indices":[0,0,0,0,3,6,0,2,3,3,5,0,0,3,0,5,0,0,4,2,2,2,4,4,4,0,2,2,0,0,5,0,5,4,4,0,4,0,5,4,0,3,0,2,4,4,5,0,0,0,0,0,0,0,0,0,0,0,0,0,0,0,0,0,0,0,0,0,0,0,0,0,0,0,0,0,0,0,0,0,0,0,0],"split_type":[0,0,0,0,0,0,0,0,0,0,0,0,0,0,0,0,0,0,0,0,0,0,0,0,0,0,0,0,0,0,0,0,0,0,0,0,0,0,0,0,0,0,0,0,0,0,0,0,0,0,0,0,0,0,0,0,0,0,0,0,0,0,0,0,0,0,0,0,0,0,0,0,0,0,0,0,0,0,0,0,0,0,0],"sum_hessian":[3.5550444E3,2.5058362E3,1.0492083E3,1.9831091E3,5.227271E2,3.9089832E2,6.5830994E2,9.716256E2,1.0114835E3,1.6693292E2,3.557942E2,3.8941214E2,1.4861501E0,1.9815242E2,4.601575E2,8.8964825E2,8.197734E1,2.4883263E2,7.626509E2,7.357249E1,9.3360435E1,9.246147E1,2.633327E2,1.714769E2,2.1793526E2,1.07170815E2,9.0981606E1,7.871586E2,1.0248962E2,1.723284E1,6.47445E1,1.1715594E2,1.316767E2,6.554843E2,1.0716655E2,4.9613533E0,6.861113E1,5.4995827E1,3.8364613E1,9.050342E1,1.958051E0,2.5503235E2,8.300366E0,8.930508E1,8.217182E1,1.5779633E2,6.0138927E1,8.979651E1,1.185096E0,5.256385E2,2.6152014E2,2.36245E0,1.4870391E1,5.408845E1,1.0656053E1,6.19563E0,1.1096031E2,8.173536E1,4.9941334E1,4.721616E2,1.8332275E2,2.1144516E1,8.602203E1,1.9903734E1,4.8707397E1,4.8841637E1,6.15419E0,9.208064E0,2.9156548E1,5.831409E1,3.218933E1,2.120114E2,4.3020954E1,8.805889E1,1.2461903E0,5.1309404E0,7.704088E1,1.5479993E2,2.9963908E0,5.4455345E1,5.6835823E0,1.8501072E1,7.129544E1],"tree_param":{"num_deleted":"0","num_feature":"7","num_nodes":"83","size_leaf_vector":"1"}},{"base_weights":[-8.071795E-4,-4.9195868E-1,1.188061E0,-6.725469E-1,1.9009766E-1,8.9987594E-1,1.3595717E0,-8.806797E-1,-4.7357753E-1,-1.7233206E-1,3.6024463E-1,9.1094047E-1,-5.8835216E-2,1.2287786E0,7.066776E-2,-1.0121524E0,-6.5430343E-1,-4.159371E-1,-9.567134E-1,3.1577694E-1,-5.568968E-1,8.9825284E-1,1.704597E-1,7.4997276E-1,1.0342519E0,6.53079E-2,1.1244578E0,-9.035071E-1,-7.155212E-2,1.2946758E-1,-7.250493E-1,-4.499782E-1,5.5944353E-1,-1.318775E0,-1.0428712E-1,-7.839497E-2,4.7239658E-1,-5.054832E-2,-1.2687622E0,9.551652E-1,-5.7869215E-2,2.2801828E-1,-7.271819E-2,1.0665339E0,4.0061355E-1,9.517707E-1,1.232348E0,1.1727638E0,-6.6972725E-2,-5.5530023E-2,-3.341765E-2,-3.234332E-2,6.5512024E-2,-1.372992E-2,-4.574823E-2,-3.8421746E-2,-1.7437786E-2,7.103099E-2,-7.6895215E-2,-7.5746365E-2,-3.1508308E-2,7.8888685E-2,-4.2053163E-2,6.239475E-2,6.956402E-3,1.0125558E-2,-7.369691E-2,4.1002533E-3,-8.4446035E-2,3.9525013E-2,6.10959E-2,1.8183032E-2,-2.159729E-2,5.540354E-2,-5.168559E-2,-7.5321265E-2,2.7250528E-2,5.039505E-2,-7.224228E-2,6.496479E-2,2.5041804E-2,4.5678187E-2,6.133125E-2],"categories":[],"categories_nodes":[],"categories_segments":[],"categories_sizes":[],"default_left":[0,0,0,0,0,0,0,0,0,0,0,0,0,0,0,0,0,0,0,0,0,0,0,0,0,0,0,0,0,0,0,0,0,0,0,0,0,0,0,0,0,0,0,0,0,0,0,0,0,0,0,0,0,0,0,0,0,0,0,0,0,0,0,0,0,0,0,0,0,0,0,0,0,0,0,0,0,0,0,0,0,0,0],"id":10,"left_children":[1,3,5,7,9,11,13,15,17,19,21,23,-1,25,-1,27,29,31,33,35,37,39,41,43,45,-1,47,49,-1,51,53,55,57,59,61,-1,63,65,67,69,-1,71,-1,73,75,77,79,81,-1,-1,-1,-1,-1,-1,-1,-1,-1,-1,-1,-1,-1,-1,-1,-1,-1,-1,-1,-1,-1,-1,-1,-1,-1,-1,-1,-1,-1,-1,-1,-1,-1,-1,-1],"loss_changes":[2.0536655E3,3.066836E2,4.959778E1,8.1083984E1,3.2239758E1,9.954102E0,2.7839355E0,2.7930725E1,2.7682434E1,3.1594948E1,3.6137524E1,6.8681335E0,0E0,1.0467529E-1,0E0,2.6282837E1,1.9822037E1,3.0221817E1,3.2795853E1,2.2689863E1,3.3812088E1,1.1921104E1,2.5019081E1,1.8448814E1,2.3467865E0,0E0,1.2305962E1,2.2820465E1,0E0,2.862707E1,2.767894E1,2.7864944E1,5.7969788E1,9.1501465E0,4.209697E1,0E0,1.777728E1,2.0455557E1,2.2285015E1,3.0095139E0,0E0,2.305666E1,0E0,8.904472E0,2.3604723E1,2.2506485E1,2.2843857E0,1.2181091E-1,0E0,0E0,0E0,0E0,0E0,0E0,0E0,0E0,0E0,0E0,0E0,0E0,0E0,0E0,0E0,0E0,0E0,0E0,0E0,0E0,0E0,0E0,0E0,0E0,0E0,0E0,0E0,0E0,0E0,0E0,0E0,0E0,0E0,0E0,0E0],"parents":[2147483647,0,0,1,1,2,2,3,3,4,4,5,5,6,6,7,7,8,8,9,9,10,10,11,11,13,13,15,15,16,16,17,17,18,18,19,19,20,20,21,21,22,22,23,23,24,24,26,26,27,27,29,29,30,30,31,31,32,32,33,33,34,34,36,36,37,37,38,38,39,39,41,41,43,43,44,44,45,45,46,46,47,47],"right_children":[2,4,6,8,10,12,14,16,18,20,22,24,-1,26,-1,28,30,32,34,36,38,40,42,44,46,-1,48,50,-1,52,54,56,58,60,62,-1,64,66,68,70,-1,72,-1,74,76,78,80,82,-1,-1,-1,-1,-1,-1,-1,-1,-1,-1,-1,-1,-1,-1,-1,-1,-1,-1,-1,-1,-1,-1,-1,-1,-1,-1,-1,-1,-1,-1,-1,-1,-1,-1,-1],"split_conditions":[3.0893198E2,1.7665927E2,5.037496E2,6.0555847E1,3E0,1E0,7.0136835E2,3.354679E1,-7.485958E0,1E0,-7.7095947E0,3.986787E2,-5.8835216E-2,3E0,7.066776E-2,3.3505154E1,3.3551933E1,3.3701275E1,3.356976E1,4E0,1E1,2.2E1,3.3654854E1,3.3462738E1,3.3586365E1,6.53079E-2,2.1E1,4E0,-7.155212E-2,3.3550823E1,-7.675478E0,2E0,3.373313E1,-7.3949356E0,3.3573395E1,-7.839497E-2,3.3384098E1,3.3554222E1,-7.674106E0,3.356976E1,-5.7869215E-2,6E0,-7.271819E-2,2.1E1,3.3490868E1,3.3560528E1,-7.4936075E0,5.597262E2,-6.6972725E-2,-5.5530023E-2,-3.341765E-2,-3.234332E-2,6.5512024E-2,-1.372992E-2,-4.574823E-2,-3.8421746E-2,-1.7437786E-2,7.103099E-2,-7.6895215E-2,-7.5746365E-2,-3.1508308E-2,7.8888685E-2,-4.2053163E-2,6.239475E-2,6.956402E-3,1.0125558E-2,-7.369691E-2,4.1002533E-3,-8.4446035E-2,3.9525013E-2,6.10959E-2,1.8183032E-2,-2.159729E-2,5.540354E-2,-5.168559E-2,-7.5321265E-2,2.7250528E-2,5.039505E-2,-7.224228E-2,6.496479E-2,2.5041804E-2,4.5678187E-2,6.133125E-2],"split_indices":[0,0,0,0,3,6,0,4,5,3,5,0,0,3,0,4,4,4,4,2,2,2,4,4,4,0,2,3,0,4,5,3,4,5,4,0,4,4,5,4,0,3,0,2,4,4,5,0,0,0,0,0,0,0,0,0,0,0,0,0,0,0,0,0,0,0,0,0,0,0,0,0,0,0,0,0,0,0,0,0,0,0,0],"split_type":[0,0,0,0,0,0,0,0,0,0,0,0,0,0,0,0,0,0,0,0,0,0,0,0,0,0,0,0,0,0,0,0,0,0,0,0,0,0,0,0,0,0,0,0,0,0,0,0,0,0,0,0,0,0,0,0,0,0,0,0,0,0,0,0,0,0,0,0,0,0,0,0,0,0,0,0,0,0,0,0,0,0,0],"sum_hessian":[3.5150654E3,2.4878555E3,1.0272098E3,1.9670524E3,5.2080316E2,3.8557874E2,6.416311E2,9.597137E2,1.0073387E3,1.6638145E2,3.544217E2,3.840935E2,1.4852221E0,1.9391252E2,4.4771857E2,6.0492175E2,3.5479193E2,9.0163074E2,1.05707954E2,7.339883E1,9.298263E1,9.1448265E1,2.6297342E2,1.6967973E2,2.1441377E2,1.04718025E2,8.9194496E1,4.828455E2,1.22076256E2,2.9304688E1,3.2548724E2,8.717452E2,2.9885525E1,7.381044E1,3.1897516E1,4.942625E0,6.84562E1,5.4960407E1,3.802222E1,8.950556E1,1.9427049E0,2.5480669E2,8.166738E0,8.7941444E1,8.173829E1,1.554808E2,5.8932964E1,8.799338E1,1.2011206E0,2.5476158E2,2.2808392E2,1.7953075E1,1.1351613E1,9.725608E1,2.2823114E2,2.0866653E2,6.630787E2,2.1415092E1,8.470431E0,5.6512665E1,1.7297777E1,9.368276E0,2.252924E1,1.9751373E1,4.8704826E1,4.7392406E1,7.568002E0,9.211852E0,2.8810368E1,5.7793446E1,3.1712118E1,2.117373E2,4.306938E1,8.6699196E1,1.2422554E0,5.089478E0,7.664881E1,1.5248886E2,2.9919384E0,5.3280552E1,5.6524124E0,1.8229189E1,6.976419E1],"tree_param":{"num_deleted":"0","num_feature":"7","num_nodes":"83","size_leaf_vector":"1"}},{"base_weights":[-7.986148E-4,-4.7142854E-1,1.1549145E0,-6.601712E-1,1.3134108E-1,8.675205E-1,1.3281507E0,-8.4827656E-1,-4.6841228E-1,-2.7399278E-1,3.2565755E-1,8.783812E-1,-5.7157885E-2,1.1953036E0,6.915854E-2,-9.780395E-1,-6.267377E-1,-4.054073E-1,-1.0184478E0,2.7492967E-1,-5.1711774E-1,8.756655E-1,1.2990531E-1,7.203693E-1,1.0001817E0,6.363192E-2,1.0914608E0,-8.701931E-1,-7.0019454E-2,-4.6093148E-1,-9.6956027E-1,-4.42464E-1,6.2094474E-1,-7.357492E-2,-1.7412035E-1,-7.796389E-2,5.878609E-1,-8.5224666E-2,-2.7497682E-1,9.2417544E-1,-5.631089E-2,1.9080183E-1,-7.339573E-2,1.0301347E0,3.821377E-1,9.184226E-1,1.1978186E0,1.1395704E0,-6.475124E-2,-2.505279E-2,-5.013405E-2,7.672471E-3,-3.0804923E-2,4.8489906E-3,-7.337911E-2,3.3080187E-2,-2.3610009E-2,6.907617E-2,-7.349882E-2,-6.942029E-2,3.6607895E-2,-7.59237E-2,3.918726E-2,-5.754062E-2,4.976097E-3,-4.952638E-2,4.7855183E-2,1.6006568E-2,-2.400855E-2,5.355103E-2,-5.0380033E-2,-7.2828196E-2,2.6043171E-2,4.866363E-2,-6.9752716E-2,6.3228555E-2,2.409499E-2,4.4163037E-2,5.9665393E-2],"categories":[],"categories_nodes":[],"categories_segments":[],"categories_sizes":[],"default_left":[0,0,0,0,0,0,0,0,0,0,0,0,0,0,0,0,0,0,0,0,0,0,0,0,0,0,0,0,0,0,0,0,0,0,0,0,0,0,0,0,0,0,0,0,0,0,0,0,0,0,0,0,0,0,0,0,0,0,0,0,0,0,0,0,0,0,0,0,0,0,0,0,0,0,0,0,0,0,0],"id":11,"left_children":[1,3,5,7,9,11,13,15,17,19,21,23,-1,25,-1,27,29,31,33,35,37,39,41,43,45,-1,47,49,-1,51,53,55,57,-1,59,-1,61,-1,63,65,-1,67,-1,69,71,73,75,77,-1,-1,-1,-1,-1,-1,-1,-1,-1,-1,-1,-1,-1,-1,-1,-1,-1,-1,-1,-1,-1,-1,-1,-1,-1,-1,-1,-1,-1,-1,-1],"loss_changes":[1.8900792E3,2.810241E2,4.891284E1,6.744122E1,4.6534092E1,9.325653E0,2.9188232E0,2.664441E1,3.1938904E1,2.5716242E1,4.2850113E1,6.584961E0,0E0,1.4123535E-1,0E0,2.5935242E1,1.9619156E1,3.2194397E1,3.619168E1,3.5053917E1,3.7814575E1,1.1195854E1,2.9030682E1,1.729255E1,2.321991E0,0E0,1.1620827E1,2.2851685E1,0E0,2.2959099E1,6.078576E1,2.6924866E1,4.9202183E1,0E0,3.888125E1,0E0,2.2452417E1,0E0,3.6782063E1,7.4196854E0,0E0,2.492983E1,0E0,8.370972E0,2.1747517E1,2.0911514E1,2.1951675E0,1.4631653E-1,0E0,0E0,0E0,0E0,0E0,0E0,0E0,0E0,0E0,0E0,0E0,0E0,0E0,0E0,0E0,0E0,0E0,0E0,0E0,0E0,0E0,0E0,0E0,0E0,0E0,0E0,0E0,0E0,0E0,0E0,0E0],"parents":[2147483647,0,0,1,1,2,2,3,3,4,4,5,5,6,6,7,7,8,8,9,9,10,10,11,11,13,13,15,15,16,16,17,17,18,18,19,19,20,20,21,21,22,22,23,23,24,24,26,26,27,27,29,29,30,30,31,31,32,32,34,34,36,36,38,38,39,39,41,41,43,43,44,44,45,45,46,46,47,47],"right_children":[2,4,6,8,10,12,14,16,18,20,22,24,-1,26,-1,28,30,32,34,36,38,40,42,44,46,-1,48,50,-1,52,54,56,58,-1,60,-1,62,-1,64,66,-1,68,-1,70,72,74,76,78,-1,-1,-1,-1,-1,-1,-1,-1,-1,-1,-1,-1,-1,-1,-1,-1,-1,-1,-1,-1,-1,-1,-1,-1,-1,-1,-1,-1,-1,-1,-1],"split_conditions":[3.0893198E2,1.627323E2,5.037496E2,6.0555847E1,3E0,1E0,7.0136835E2,3.354679E1,-7.485958E0,3.3422794E1,-7.7095947E0,3.986787E2,-5.7157885E-2,3E0,6.915854E-2,3.3505154E1,3.3623074E1,3.3701275E1,-7.4102273E0,-7.6440763E0,3.3473244E1,2.2E1,3.3654854E1,3.3462738E1,3.3586365E1,6.363192E-2,2.1E1,1.064176E1,-7.0019454E-2,1E0,-7.6887197E0,6.1118122E1,3.373313E1,-7.357492E-2,1.19021904E2,-7.796389E-2,4E0,-8.5224666E-2,1.9948454E2,-7.839927E0,-5.631089E-2,6E0,-7.339573E-2,2.1E1,3.3490868E1,3.3560528E1,-7.4936075E0,5.597262E2,-6.475124E-2,-2.505279E-2,-5.013405E-2,7.672471E-3,-3.0804923E-2,4.8489906E-3,-7.337911E-2,3.3080187E-2,-2.3610009E-2,6.907617E-2,-7.349882E-2,-6.942029E-2,3.6607895E-2,-7.59237E-2,3.918726E-2,-5.754062E-2,4.976097E-3,-4.952638E-2,4.7855183E-2,1.6006568E-2,-2.400855E-2,5.355103E-2,-5.0380033E-2,-7.2828196E-2,2.6043171E-2,4.866363E-2,-6.9752716E-2,6.3228555E-2,2.409499E-2,4.4163037E-2,5.9665393E-2],"split_indices":[0,0,0,0,3,6,0,4,5,4,5,0,0,3,0,4,4,4,5,5,4,2,4,4,4,0,2,0,0,3,5,0,4,0,0,0,2,0,0,5,0,3,0,2,4,4,5,0,0,0,0,0,0,0,0,0,0,0,0,0,0,0,0,0,0,0,0,0,0,0,0,0,0,0,0,0,0,0,0],"split_type":[0,0,0,0,0,0,0,0,0,0,0,0,0,0,0,0,0,0,0,0,0,0,0,0,0,0,0,0,0,0,0,0,0,0,0,0,0,0,0,0,0,0,0,0,0,0,0,0,0,0,0,0,0,0,0,0,0,0,0,0,0,0,0,0,0,0,0,0,0,0,0,0,0,0,0,0,0,0,0],"sum_hessian":[3.4729639E3,2.4683809E3,1.00458295E3,1.8797025E3,5.886784E2,3.8006827E2,6.245147E2,9.471626E2,9.325399E2,1.9062816E2,3.980503E2,3.7858646E2,1.4817894E0,1.8955469E2,4.3496E2,5.951486E2,3.5201395E2,8.382571E2,9.428287E1,5.84746E1,1.3215355E2,1.0357125E2,2.9447903E2,1.6780595E2,2.1078052E2,1.0219292E2,8.736177E1,4.7652817E2,1.1862047E2,2.3884233E2,1.1317163E2,8.0959534E2,2.8661743E1,6.0875427E1,3.340744E1,7.9418173E0,5.0532787E1,2.1362068E1,1.1079148E2,1.01646484E2,1.9247651E0,2.8451608E2,9.96296E0,8.652104E1,8.128491E1,1.5309477E2,5.768574E1,8.61476E1,1.2141722E0,1.2712227E2,3.494059E2,4.8160954E1,1.9068138E2,3.628043E1,7.68912E1,2.067588E1,7.8891943E2,2.1265594E1,7.396148E0,1.4050183E1,1.9357258E1,3.7250967E0,4.680769E1,3.256326E1,7.8228226E1,1.2268456E0,1.0041964E2,2.3897643E2,4.5539646E1,8.528426E1,1.2367733E0,5.0360746E0,7.624883E1,1.5011502E2,2.979762E0,5.2064835E1,5.620907E0,1.7953255E1,6.819434E1],"tree_param":{"num_deleted":"0","num_feature":"7","num_nodes":"79","size_leaf_vector":"1"}},{"base_weights":[-8.7086804E-4,-4.5210308E-1,1.1237915E0,-6.3369435E-1,1.2461815E-1,8.3682233E-1,1.2991067E0,-8.1790626E-1,-4.4755527E-1,-2.629806E-1,3.1024113E-1,8.4748644E-1,-5.5582292E-2,1.1638981E0,6.777638E-2,-8.691247E-1,-2.621416E-1,-3.865434E-1,-9.892399E-1,1.6322292E-1,-5.6290126E-1,8.402605E-1,1.2329322E-1,6.922568E-1,9.679106E-1,1.2413911E0,1.0603E0,-7.898201E-1,-7.370924E-2,1.1998392E0,-6.777339E-1,-4.2187345E-1,5.9107035E-1,-7.182245E-2,-1.6840902E-1,1.0715979E0,-1.6346745E-1,-1.0697221E-2,-1.2944894E0,8.8737845E-1,-5.484649E-2,1.8138604E-1,-7.13306E-2,9.95743E-1,3.6457416E-1,8.8675416E-1,1.1654447E0,6.345102E-2,8.302587E-1,1.1082244E0,-6.2677875E-2,-3.178635E-2,-5.492398E-2,8.045428E-2,-5.580336E-2,-5.6867868E-2,7.2850354E-2,-3.422656E-2,-1.4802267E-2,6.565039E-2,-7.1290754E-2,-6.7785785E-2,3.4863528E-2,-6.61229E-2,6.7515776E-2,-5.924293E-2,3.333601E-2,-2.154508E-2,5.6667518E-2,-8.029037E-2,-6.0168034E-3,7.886278E-2,3.8522933E-2,-8.1779204E-2,1.1215294E-2,5.1800787E-2,-4.9142156E-2,-7.0552416E-2,2.4891712E-2,4.7017705E-2,-6.747105E-2,6.1609168E-2,2.3186024E-2,2.2319876E-2,5.5366784E-2,3.0047381E-2,5.6406923E-2],"categories":[],"categories_nodes":[],"categories_segments":[],"categories_sizes":[],"default_left":[0,0,0,0,0,0,0,0,0,0,0,0,0,0,0,0,0,0,0,0,0,0,0,0,0,0,0,0,0,0,0,0,0,0,0,0,0,0,0,0,0,0,0,0,0,0,0,0,0,0,0,0,0,0,0,0,0,0,0,0,0,0,0,0,0,0,0,0,0,0,0,0,0,0,0,0,0,0,0,0,0,0,0,0,0,0,0],"id":12,"left_children":[1,3,5,7,9,11,13,15,17,19,21,23,-1,25,-1,27,29,31,33,35,37,39,41,43,45,47,49,51,-1,53,55,57,59,-1,61,63,65,67,69,71,-1,73,-1,75,77,79,81,-1,83,85,-1,-1,-1,-1,-1,-1,-1,-1,-1,-1,-1,-1,-1,-1,-1,-1,-1,-1,-1,-1,-1,-1,-1,-1,-1,-1,-1,-1,-1,-1,-1,-1,-1,-1,-1,-1,-1],"loss_changes":[1.7413737E3,2.5654242E2,4.8343506E1,6.3500854E1,4.233326E1,8.742798E0,3.0614014E0,2.638562E1,3.030922E1,2.4469788E1,3.9287968E1,6.3202515E0,0E0,1.7788696E-1,0E0,3.98916E1,4.9617023E1,2.9134293E1,3.4032173E1,2.3781216E1,4.5298515E1,1.0419434E1,2.6825577E1,1.6232208E1,2.3020935E0,8.934021E-2,1.0981056E1,3.5383392E1,0E0,1.8988796E1,6.3651436E1,2.6491943E1,4.4950222E1,0E0,3.5955013E1,1.591403E1,5.113523E1,3.1700594E1,1.743908E1,6.9785614E0,0E0,2.261481E1,0E0,7.875656E0,2.0061834E1,1.9446663E1,2.1171875E0,0E0,4.8720264E-1,1.8347168E-1,0E0,0E0,0E0,0E0,0E0,0E0,0E0,0E0,0E0,0E0,0E0,0E0,0E0,0E0,0E0,0E0,0E0,0E0,0E0,0E0,0E0,0E0,0E0,0E0,0E0,0E0,0E0,0E0,0E0,0E0,0E0,0E0,0E0,0E0,0E0,0E0,0E0],"parents":[2147483647,0,0,1,1,2,2,3,3,4,4,5,5,6,6,7,7,8,8,9,9,10,10,11,11,13,13,15,15,16,16,17,17,18,18,19,19,20,20,21,21,22,22,23,23,24,24,25,25,26,26,27,27,29,29,30,30,31,31,32,32,34,34,35,35,36,36,37,37,38,38,39,39,41,41,43,43,44,44,45,45,46,46,48,48,49,49],"right_children":[2,4,6,8,10,12,14,16,18,20,22,24,-1,26,-1,28,30,32,34,36,38,40,42,44,46,48,50,52,-1,54,56,58,60,-1,62,64,66,68,70,72,-1,74,-1,76,78,80,82,-1,84,86,-1,-1,-1,-1,-1,-1,-1,-1,-1,-1,-1,-1,-1,-1,-1,-1,-1,-1,-1,-1,-1,-1,-1,-1,-1,-1,-1,-1,-1,-1,-1,-1,-1,-1,-1,-1,-1],"split_conditions":[3.0893198E2,1.627323E2,5.037496E2,6.0555847E1,3E0,1E0,7.0136835E2,2.2E1,-7.485958E0,1E0,-7.7095947E0,3.986787E2,-5.5582292E-2,3E0,6.777638E-2,-7.495979E0,1.5965636E0,3.3701275E1,-7.4102273E0,3.3384098E1,1E1,2.2E1,3.3654854E1,3.3462738E1,3.3586365E1,-7.5240993E0,2.1E1,1.4E1,-7.370924E-2,-7.617707E0,-7.416008E0,-7.64869E0,3.373313E1,-7.182245E-2,1.19021904E2,1.2E1,3.3550823E1,9E0,2.596397E2,1E0,-5.484649E-2,-7.694433E0,-7.13306E-2,2.1E1,3.3490868E1,3.3560528E1,-7.4936075E0,6.345102E-2,-7.4782143E0,3.3379894E1,-6.2677875E-2,-3.178635E-2,-5.492398E-2,8.045428E-2,-5.580336E-2,-5.6867868E-2,7.2850354E-2,-3.422656E-2,-1.4802267E-2,6.565039E-2,-7.1290754E-2,-6.7785785E-2,3.4863528E-2,-6.61229E-2,6.7515776E-2,-5.924293E-2,3.333601E-2,-2.154508E-2,5.6667518E-2,-8.029037E-2,-6.0168034E-3,7.886278E-2,3.8522933E-2,-8.1779204E-2,1.1215294E-2,5.1800787E-2,-4.9142156E-2,-7.0552416E-2,2.4891712E-2,4.7017705E-2,-6.747105E-2,6.1609168E-2,2.3186024E-2,2.2319876E-2,5.5366784E-2,3.0047381E-2,5.6406923E-2],"split_indices":[0,0,0,0,3,6,0,2,5,3,5,0,0,3,0,5,0,4,5,4,2,2,4,4,4,5,2,2,0,5,5,5,4,0,0,2,4,2,0,2,0,5,0,2,4,4,5,0,5,4,0,0,0,0,0,0,0,0,0,0,0,0,0,0,0,0,0,0,0,0,0,0,0,0,0,0,0,0,0,0,0,0,0,0,0,0,0],"split_type":[0,0,0,0,0,0,0,0,0,0,0,0,0,0,0,0,0,0,0,0,0,0,0,0,0,0,0,0,0,0,0,0,0,0,0,0,0,0,0,0,0,0,0,0,0,0,0,0,0,0,0,0,0,0,0,0,0,0,0,0,0,0,0,0,0,0,0,0,0,0,0,0,0,0,0,0,0,0,0,0,0,0,0,0,0,0,0],"sum_hessian":[3.4293862E3,2.447863E3,9.8152313E2,1.8616039E3,5.862591E2,3.7441922E2,6.0710394E2,9.339397E2,9.276642E2,1.8970984E2,3.965493E2,3.729431E2,1.4760878E0,1.8511592E2,4.21988E2,8.546158E2,7.932391E1,8.352955E2,9.236876E1,7.8546616E1,1.1116323E2,1.0248828E2,2.94061E2,1.658749E2,2.0706822E2,9.9617714E1,8.549821E1,7.5762054E2,9.699524E1,1.7140299E1,6.2183617E1,8.0671014E2,2.8585297E1,5.9306892E1,3.306187E1,2.0173437E1,5.8373173E1,6.392622E1,4.7237007E1,1.00583725E2,1.9045557E0,2.842884E2,9.772595E0,8.505849E1,8.0816414E1,1.5065933E2,5.6408894E1,9.1389404E1,8.228315E0,8.427378E1,1.2244244E0,5.0737952E2,2.5024106E2,1.4825645E1,2.314654E0,5.155147E1,1.0632147E1,2.5985016E2,5.4686E2,2.1307383E1,7.2779136E0,1.3702455E1,1.9359415E1,1.7131827E0,1.8460255E1,2.598108E1,3.2392094E1,4.720965E1,1.6716574E1,3.7046715E1,1.0190292E1,1.2766405E1,8.781732E1,5.7040715E0,2.7858432E2,8.38286E1,1.2298905E0,4.972444E0,7.584396E1,1.4769855E2,2.9607792E0,5.081967E1,5.589222E0,4.5440726E0,3.684243E0,4.3610225E0,7.991276E1],"tree_param":{"num_deleted":"0","num_feature":"7","num_nodes":"87","size_leaf_vector":"1"}},{"base_weights":[-8.308281E-4,-4.334915E-1,1.0944667E0,-5.9699273E-1,1.5853515E-1,8.076034E-1,1.2721837E0,-7.881946E-1,-4.167828E-1,-1.7944139E-1,3.1687573E-1,8.180772E-1,-5.409897E-2,1.1344366E0,6.650645E-2,-9.182092E-1,-5.6895274E-1,2.0347007E-1,-4.572164E-1,2.733065E-1,-5.301516E-1,8.003689E-1,1.5644027E-1,6.6549075E-1,9.37232E-1,1.2125411E0,1.0305367E0,-8.0892193E-1,-6.7805484E-2,-4.7351998E-1,-1.1708642E0,-6.51445E-2,3.8113922E-1,6.8900186E-1,-4.8391724E-1,-7.252586E-2,4.147165E-1,-4.6829864E-2,-1.1918837E0,8.5295755E-1,-5.3466912E-2,2.0847279E-1,-6.7624204E-2,9.631245E-1,3.478569E-1,8.565834E-1,1.134959E0,6.1995655E-2,8.08741E-1,1.0782785E0,-6.073886E-2,-5.0938256E-2,-2.8734138E-2,-3.797596E-2,-4.0078475E-3,-7.5499915E-2,6.548243E-2,7.0749223E-3,6.7389384E-2,-7.375445E-2,7.2462566E-2,-2.05384E-2,-4.3599125E-2,-1.322747E-2,3.5226803E-2,9.971439E-3,-7.121518E-2,1.0224972E-3,-7.913067E-2,3.44424E-2,5.617937E-2,-7.8498416E-2,1.2608873E-2,5.0140806E-2,-4.7966506E-2,-6.8465315E-2,2.3792658E-2,4.5448046E-2,-6.537114E-2,6.009203E-2,2.2312868E-2,2.0872628E-2,5.4755002E-2,4.0883463E-2,5.670745E-2],"categories":[],"categories_nodes":[],"categories_segments":[],"categories_sizes":[],"default_left":[0,0,0,0,0,0,0,0,0,0,0,0,0,0,0,0,0,0,0,0,0,0,0,0,0,0,0,0,0,0,0,0,0,0,0,0,0,0,0,0,0,0,0,0,0,0,0,0,0,0,0,0,0,0,0,0,0,0,0,0,0,0,0,0,0,0,0,0,0,0,0,0,0,0,0,0,0,0,0,0,0,0,0,0,0],"id":13,"left_children":[1,3,5,7,9,11,13,15,17,19,21,23,-1,25,-1,27,29,31,33,35,37,39,41,43,45,47,49,51,-1,53,55,-1,57,59,61,-1,63,65,67,69,-1,71,-1,73,75,77,79,-1,81,83,-1,-1,-1,-1,-1,-1,-1,-1,-1,-1,-1,-1,-1,-1,-1,-1,-1,-1,-1,-1,-1,-1,-1,-1,-1,-1,-1,-1,-1,-1,-1,-1,-1,-1,-1],"loss_changes":[1.605347E3,2.351511E2,4.7874756E1,6.524359E1,2.8221985E1,8.201447E0,3.204834E0,2.5765625E1,2.4715729E1,2.6906921E1,2.7703224E1,6.0708313E0,0E0,2.2462463E-1,0E0,2.653067E1,1.9317223E1,1.6762777E1,2.8551971E1,1.8696205E1,3.0428646E1,9.676945E0,2.1528698E1,1.5254707E1,2.2857513E0,8.09021E-2,1.0380821E1,2.2245056E1,0E0,3.3720932E1,4.123238E1,0E0,1.2582218E1,3.7349297E1,2.5235931E1,0E0,1.3844776E1,1.9322046E1,1.9070625E1,3.1014442E0,0E0,2.0795898E1,0E0,7.4148865E0,1.8528667E1,1.8098701E1,2.0482864E0,0E0,5.6246567E-1,2.8679657E-1,0E0,0E0,0E0,0E0,0E0,0E0,0E0,0E0,0E0,0E0,0E0,0E0,0E0,0E0,0E0,0E0,0E0,0E0,0E0,0E0,0E0,0E0,0E0,0E0,0E0,0E0,0E0,0E0,0E0,0E0,0E0,0E0,0E0,0E0,0E0],"parents":[2147483647,0,0,1,1,2,2,3,3,4,4,5,5,6,6,7,7,8,8,9,9,10,10,11,11,13,13,15,15,16,16,17,17,18,18,19,19,20,20,21,21,22,22,23,23,24,24,25,25,26,26,27,27,29,29,30,30,32,32,33,33,34,34,36,36,37,37,38,38,39,39,41,41,43,43,44,44,45,45,46,46,48,48,49,49],"right_children":[2,4,6,8,10,12,14,16,18,20,22,24,-1,26,-1,28,30,32,34,36,38,40,42,44,46,48,50,52,-1,54,56,-1,58,60,62,-1,64,66,68,70,-1,72,-1,74,76,78,80,-1,82,84,-1,-1,-1,-1,-1,-1,-1,-1,-1,-1,-1,-1,-1,-1,-1,-1,-1,-1,-1,-1,-1,-1,-1,-1,-1,-1,-1,-1,-1,-1,-1,-1,-1,-1,-1],"split_conditions":[3.0893198E2,1.7444829E2,5.037496E2,6.0555847E1,3E0,1E0,7.0136835E2,3.354679E1,1E0,1E0,-7.7095947E0,3.986787E2,-5.409897E-2,3E0,6.650645E-2,3.3505154E1,4.874189E1,2E0,6.1118122E1,4E0,1E1,2.2E1,3.3654854E1,3.3462738E1,3.3586365E1,-7.5240993E0,2.1E1,4E0,-6.7805484E-2,2.7938744E1,-7.365777E0,-6.51445E-2,3.3654854E1,1.5E1,-7.510797E0,-7.252586E-2,-7.6146173E0,3.3554222E1,-7.674106E0,3.356976E1,-5.3466912E-2,-7.694433E0,-6.7624204E-2,2.1E1,3.3490868E1,3.3560528E1,-7.4936075E0,6.1995655E-2,2E1,5.597262E2,-6.073886E-2,-5.0938256E-2,-2.8734138E-2,-3.797596E-2,-4.0078475E-3,-7.5499915E-2,6.548243E-2,7.0749223E-3,6.7389384E-2,-7.375445E-2,7.2462566E-2,-2.05384E-2,-4.3599125E-2,-1.322747E-2,3.5226803E-2,9.971439E-3,-7.121518E-2,1.0224972E-3,-7.913067E-2,3.44424E-2,5.617937E-2,-7.8498416E-2,1.2608873E-2,5.0140806E-2,-4.7966506E-2,-6.8465315E-2,2.3792658E-2,4.5448046E-2,-6.537114E-2,6.009203E-2,2.2312868E-2,2.0872628E-2,5.4755002E-2,4.0883463E-2,5.670745E-2],"split_indices":[0,0,0,0,3,6,0,4,2,3,5,0,0,3,0,4,0,3,0,2,2,2,4,4,4,5,2,3,0,0,5,0,4,2,5,0,5,4,5,4,0,5,0,2,4,4,5,0,2,0,0,0,0,0,0,0,0,0,0,0,0,0,0,0,0,0,0,0,0,0,0,0,0,0,0,0,0,0,0,0,0,0,0,0,0],"split_type":[0,0,0,0,0,0,0,0,0,0,0,0,0,0,0,0,0,0,0,0,0,0,0,0,0,0,0,0,0,0,0,0,0,0,0,0,0,0,0,0,0,0,0,0,0,0,0,0,0,0,0,0,0,0,0,0,0,0,0,0,0,0,0,0,0,0,0,0,0,0,0,0,0,0,0,0,0,0,0,0,0,0,0,0,0],"sum_hessian":[3.3855774E3,2.4273416E3,9.582359E2,1.9020421E3,5.252994E2,3.686772E2,5.895587E2,9.212387E2,9.8080347E2,1.6754433E2,3.577551E2,3.6720883E2,1.4683406E0,1.80664E2,4.0889474E2,5.7629614E2,3.4494257E2,5.977783E1,9.2102563E2,7.32296E1,9.431472E1,8.814124E1,2.6961383E2,1.6390349E2,2.0330536E2,9.7043495E1,8.3620514E1,4.6347375E2,1.1282236E2,2.9927878E2,4.5663795E1,5.638534E0,5.4139297E1,2.040194E1,9.006237E2,4.8499513E0,6.837965E1,5.512373E1,3.9190994E1,8.625887E1,1.8823742E0,2.6145972E2,8.154123E0,8.356656E1,8.033693E1,1.4819281E2,5.511254E1,8.894374E1,8.0997505E0,8.238846E1,1.2320541E0,2.4270091E2,2.2077286E2,1.7274887E2,1.26529915E2,4.0515762E1,5.1480308E0,4.4302654E1,9.836643E0,5.059508E0,1.5342432E1,7.595156E2,1.4110808E2,2.0476034E1,4.790361E1,4.7489067E1,7.6346626E0,9.783373E0,2.9407621E1,5.590407E1,3.0354801E1,5.433564E0,2.5602615E2,8.234482E1,1.2217457E0,4.900126E0,7.5436806E1,1.4525697E2,2.935833E0,4.9555046E1,5.557494E0,4.4613886E0,3.638362E0,1.7304798E1,6.5083664E1],"tree_param":{"num_deleted":"0","num_feature":"7","num_nodes":"85","size_leaf_vector":"1"}},{"base_weights":[-8.13677E-4,-4.1565531E-1,1.0667162E0,-6.1025274E-1,4.4678535E-2,7.7971154E-1,1.2471325E0,-7.6003516E-1,-4.358538E-1,-2.735673E-1,2.074591E-1,7.900004E-1,-5.2699544E-2,1.1066629E0,6.5336056E-2,-8.8853824E-1,-5.453685E-1,-5.6881285E-1,-1.4651291E-1,1.00632936E-1,-5.327433E-1,6.840585E-1,5.794747E-2,5.168268E-1,8.5410297E-1,1.1854222E0,1.0024163E0,-7.798882E-1,-6.659076E-2,-3.809319E-1,-8.923259E-1,-7.3458195E-1,-1.9612537E-1,3.9970897E-2,-7.7141784E-2,-2.6090315E-1,6.434662E-1,-1.0062077E-1,-1.0648881E0,-6.573801E-2,7.660275E-1,1.1265316E-1,-7.105126E-2,7.4026006E-1,-7.1358824E-1,9.785749E-2,8.688844E-1,1.0083578E0,6.3279554E-2,1.0499855E0,-5.8921855E-2,-3.488037E-2,-7.012179E-2,1.1221894E-2,-2.6793456E-2,7.088558E-3,-7.001312E-2,8.039183E-3,-4.431454E-2,3.620039E-2,-3.0513858E-2,-7.473251E-2,8.673202E-3,-8.158098E-2,1.0269555E-2,4.632709E-2,-7.051643E-2,6.8060653E-3,-7.29343E-2,6.406475E-2,-6.50663E-2,4.1174144E-2,-5.8258235E-2,-3.1924427E-2,1.0499037E-2,2.7394468E-2,6.76018E-2,4.0665705E-2,-8.6712934E-2,-7.560262E-2,4.075533E-2,4.0470272E-2,5.375231E-2,3.525013E-2,6.162381E-2,2.666144E-2,5.354425E-2],"categories":[],"categories_nodes":[],"categories_segments":[],"categories_sizes":[],"default_left":[0,0,0,0,0,0,0,0,0,0,0,0,0,0,0,0,0,0,0,0,0,0,0,0,0,0,0,0,0,0,0,0,0,0,0,0,0,0,0,0,0,0,0,0,0,0,0,0,0,0,0,0,0,0,0,0,0,0,0,0,0,0,0,0,0,0,0,0,0,0,0,0,0,0,0,0,0,0,0,0,0,0,0,0,0,0,0],"id":14,"left_children":[1,3,5,7,9,11,13,15,17,19,21,23,-1,25,-1,27,29,31,33,35,37,39,41,43,45,47,49,51,-1,53,55,57,59,61,-1,63,65,67,69,-1,71,73,-1,75,77,79,81,83,-1,85,-1,-1,-1,-1,-1,-1,-1,-1,-1,-1,-1,-1,-1,-1,-1,-1,-1,-1,-1,-1,-1,-1,-1,-1,-1,-1,-1,-1,-1,-1,-1,-1,-1,-1,-1,-1,-1],"loss_changes":[1.480926E3,2.1575381E2,4.7485107E1,4.388617E1,3.717313E1,7.697876E0,3.3496704E0,2.459851E1,3.0094543E1,2.3609774E1,3.3778008E1,5.9050293E0,0E0,2.6649475E-1,0E0,2.6279297E1,1.9233719E1,3.3039062E1,6.472334E1,1.9838446E1,3.292718E1,1.9559834E1,2.9477188E1,2.0161156E1,3.1791382E0,7.8811646E-2,9.820168E0,2.2480225E1,0E0,2.211596E1,5.775155E1,5.059111E1,6.397506E1,4.533744E1,0E0,3.92426E1,2.4769524E1,2.6042871E1,3.732174E1,0E0,1.3098991E1,2.5747173E1,0E0,6.429943E0,1.9308544E1,8.997927E0,2.6403503E0,1.4881783E0,0E0,3.0911255E-1,0E0,0E0,0E0,0E0,0E0,0E0,0E0,0E0,0E0,0E0,0E0,0E0,0E0,0E0,0E0,0E0,0E0,0E0,0E0,0E0,0E0,0E0,0E0,0E0,0E0,0E0,0E0,0E0,0E0,0E0,0E0,0E0,0E0,0E0,0E0,0E0,0E0],"parents":[2147483647,0,0,1,1,2,2,3,3,4,4,5,5,6,6,7,7,8,8,9,9,10,10,11,11,13,13,15,15,16,16,17,17,18,18,19,19,20,20,21,21,22,22,23,23,24,24,25,25,26,26,27,27,29,29,30,30,31,31,32,32,33,33,35,35,36,36,37,37,38,38,40,40,41,41,43,43,44,44,45,45,46,46,47,47,49,49],"right_children":[2,4,6,8,10,12,14,16,18,20,22,24,-1,26,-1,28,30,32,34,36,38,40,42,44,46,48,50,52,-1,54,56,58,60,62,-1,64,66,68,70,-1,72,74,-1,76,78,80,82,84,-1,86,-1,-1,-1,-1,-1,-1,-1,-1,-1,-1,-1,-1,-1,-1,-1,-1,-1,-1,-1,-1,-1,-1,-1,-1,-1,-1,-1,-1,-1,-1,-1,-1,-1,-1,-1,-1,-1],"split_conditions":[3.0893198E2,1.402724E2,5.037496E2,6.0555847E1,3E0,1E0,7.0136835E2,3.354679E1,5E0,1E0,-7.7095947E0,3.4435715E2,-5.2699544E-2,3E0,6.5336056E-2,3.3505154E1,3.3623074E1,1.1332701E2,1.2014882E2,3.3550823E1,1E1,1.5067055E2,3.3654854E1,-7.5527835E0,1E0,1E0,2.1E1,-7.495979E0,-6.659076E-2,1E0,-7.6887197E0,6.4315636E1,1.180908E2,3.339452E1,-7.7141784E-2,-7.6124687E0,-7.5668626E0,3.3555367E1,1.4233066E2,-6.573801E-2,2.2E1,-7.6661344E0,-7.105126E-2,-7.571391E0,3.3396496E1,3.3539158E1,3.3591732E1,1.5E1,6.3279554E-2,-7.7801275E0,-5.8921855E-2,-3.488037E-2,-7.012179E-2,1.1221894E-2,-2.6793456E-2,7.088558E-3,-7.001312E-2,8.039183E-3,-4.431454E-2,3.620039E-2,-3.0513858E-2,-7.473251E-2,8.673202E-3,-8.158098E-2,1.0269555E-2,4.632709E-2,-7.051643E-2,6.8060653E-3,-7.29343E-2,6.406475E-2,-6.50663E-2,4.1174144E-2,-5.8258235E-2,-3.1924427E-2,1.0499037E-2,2.7394468E-2,6.76018E-2,4.0665705E-2,-8.6712934E-2,-7.560262E-2,4.075533E-2,4.0470272E-2,5.375231E-2,3.525013E-2,6.162381E-2,2.666144E-2,5.354425E-2],"split_indices":[0,0,0,0,3,6,0,4,3,3,5,0,0,3,0,4,4,0,0,4,2,0,4,5,2,3,2,5,0,3,5,0,0,4,0,5,5,4,0,0,2,5,0,5,4,4,4,2,0,5,0,0,0,0,0,0,0,0,0,0,0,0,0,0,0,0,0,0,0,0,0,0,0,0,0,0,0,0,0,0,0,0,0,0,0,0,0],"split_type":[0,0,0,0,0,0,0,0,0,0,0,0,0,0,0,0,0,0,0,0,0,0,0,0,0,0,0,0,0,0,0,0,0,0,0,0,0,0,0,0,0,0,0,0,0,0,0,0,0,0,0,0,0,0,0,0,0,0,0,0,0,0,0,0,0,0,0,0,0,0,0,0,0,0,0,0,0,0,0,0,0,0,0,0,0,0,0],"sum_hessian":[3.3420352E3,2.4072063E3,9.348287E2,1.6917327E3,7.1547375E2,3.6288168E2,5.71947E2,9.082902E2,7.834424E2,2.4188785E2,4.735859E2,3.6142294E2,1.4587579E0,1.7618735E2,3.9575964E2,5.662089E2,3.4208133E2,5.361177E2,2.4732475E2,9.9230225E1,1.4265762E2,1.1223578E2,3.6135013E2,7.041432E1,2.910086E2,9.4454666E1,8.173269E1,4.5696356E2,1.0924534E2,2.3350986E2,1.0857148E2,3.7039655E2,1.6572112E2,2.1904227E2,2.828249E1,5.98731E1,3.935713E1,7.938387E1,6.3273743E1,3.828871E0,1.0840691E2,3.493518E2,1.1998336E1,5.992991E1,1.0484414E1,5.7250366E0,2.8528357E2,3.3669243E1,6.0785423E1,8.0495445E1,1.2372396E0,4.054912E2,5.1472336E1,4.7493786E1,1.8601607E2,3.600024E1,7.257124E1,5.3657463E1,3.1673907E2,5.1206333E1,1.1451478E2,1.6713173E1,2.0232909E2,1.4563419E1,4.530968E1,3.5072E1,4.2851286E0,6.836589E1,1.10179825E1,5.3881145E0,5.7885628E1,1.0583187E2,2.5750408E0,3.9436203E1,3.099156E2,4.7035374E1,1.2894535E1,4.2819138E0,6.2025003E0,1.4229685E0,4.3020678E0,2.252295E2,6.0054058E1,1.606719E1,1.760205E1,4.159601E0,7.6335846E1],"tree_param":{"num_deleted":"0","num_feature":"7","num_nodes":"87","size_leaf_vector":"1"}},{"base_weights":[-8.756194E-4,-3.9883816E-1,1.0398831E0,-5.510341E-1,1.4737058E-1,7.522596E-1,1.2236881E0,-7.333981E-1,-3.8242617E-1,-1.614909E-1,2.9159856E-1,7.6235205E-1,-5.1376563E-2,1.0802351E0,6.425428E-2,-7.840009E-1,-1.8954015E-1,2.0510869E-1,-4.209422E-1,2.519388E-1,-4.847087E-1,7.424166E-1,1.4538507E-1,6.126681E-1,8.807328E-1,1.15992E0,9.75334E-1,-7.052133E-1,-7.0084535E-2,1.204736E0,-6.014573E-1,-6.2798254E-2,3.729988E-1,6.510526E-1,-4.4610286E-1,-6.996906E-2,3.8659027E-1,-4.2034525E-2,-1.1058471E0,7.9222065E-1,-5.0789364E-2,2.6823306E-1,-4.5793816E-1,9.0984493E-1,3.0073196E-1,8.0081886E-1,1.0797644E0,5.941006E-2,7.52282E-1,1.0227271E0,-5.721584E-2,-2.7556686E-2,-5.0874658E-2,-5.260266E-2,7.938388E-2,-5.283711E-2,7.008548E-2,4.2285003E-2,-4.115374E-3,-7.135017E-2,6.864232E-2,-1.8759167E-2,-4.1306976E-2,5.3666245E-2,4.9498915E-3,8.666395E-3,-7.805906E-2,3.9474475E-3,-7.503186E-2,2.6565148E-2,4.810446E-2,2.0159088E-2,-2.26825E-2,2.5966192E-2,-4.471229E-2,4.7489997E-2,-4.766338E-2,-6.701695E-2,2.117478E-2,4.2659633E-2,-6.462143E-2,5.748533E-2,1.949599E-2,1.7909968E-2,5.2553095E-2,3.7852712E-2,5.4048587E-2],"categories":[],"categories_nodes":[],"categories_segments":[],"categories_sizes":[],"default_left":[0,0,0,0,0,0,0,0,0,0,0,0,0,0,0,0,0,0,0,0,0,0,0,0,0,0,0,0,0,0,0,0,0,0,0,0,0,0,0,0,0,0,0,0,0,0,0,0,0,0,0,0,0,0,0,0,0,0,0,0,0,0,0,0,0,0,0,0,0,0,0,0,0,0,0,0,0,0,0,0,0,0,0,0,0,0,0],"id":15,"left_children":[1,3,5,7,9,11,13,15,17,19,21,23,-1,25,-1,27,29,31,33,35,37,39,41,43,45,47,49,51,-1,53,55,-1,57,59,61,-1,63,65,67,69,-1,71,73,75,77,79,81,-1,83,85,-1,-1,-1,-1,-1,-1,-1,-1,-1,-1,-1,-1,-1,-1,-1,-1,-1,-1,-1,-1,-1,-1,-1,-1,-1,-1,-1,-1,-1,-1,-1,-1,-1,-1,-1,-1,-1],"loss_changes":[1.3669609E3,1.9855289E2,4.7342163E1,5.7138428E1,2.325864E1,7.223419E0,3.503357E0,2.4510376E1,2.2090958E1,2.2372387E1,2.3328686E1,5.7878113E0,0E0,3.1254578E-1,0E0,3.888983E1,4.5287205E1,1.5308056E1,2.491301E1,1.693217E1,2.5742807E1,8.408234E0,2.0113869E1,1.4649082E1,2.27034E0,1.7691803E-1,9.292389E0,3.4503326E1,0E0,1.725069E1,5.6715233E1,0E0,1.1913737E1,3.396989E1,2.3746048E1,0E0,1.35099125E1,1.8527458E1,1.8355572E1,3.256279E0,0E0,2.2074839E1,2.0077742E1,7.005501E0,1.6691267E1,1.6945312E1,2.137722E0,0E0,6.5395164E-1,4.135437E-1,0E0,0E0,0E0,0E0,0E0,0E0,0E0,0E0,0E0,0E0,0E0,0E0,0E0,0E0,0E0,0E0,0E0,0E0,0E0,0E0,0E0,0E0,0E0,0E0,0E0,0E0,0E0,0E0,0E0,0E0,0E0,0E0,0E0,0E0,0E0,0E0,0E0],"parents":[2147483647,0,0,1,1,2,2,3,3,4,4,5,5,6,6,7,7,8,8,9,9,10,10,11,11,13,13,15,15,16,16,17,17,18,18,19,19,20,20,21,21,22,22,23,23,24,24,25,25,26,26,27,27,29,29,30,30,32,32,33,33,34,34,36,36,37,37,38,38,39,39,41,41,42,42,43,43,44,44,45,45,46,46,48,48,49,49],"right_children":[2,4,6,8,10,12,14,16,18,20,22,24,-1,26,-1,28,30,32,34,36,38,40,42,44,46,48,50,52,-1,54,56,-1,58,60,62,-1,64,66,68,70,-1,72,74,76,78,80,82,-1,84,86,-1,-1,-1,-1,-1,-1,-1,-1,-1,-1,-1,-1,-1,-1,-1,-1,-1,-1,-1,-1,-1,-1,-1,-1,-1,-1,-1,-1,-1,-1,-1,-1,-1,-1,-1,-1,-1],"split_conditions":[3.0893198E2,1.7444829E2,5.037496E2,6.0555847E1,3E0,1E0,7.0136835E2,2.2E1,1E0,1E0,-7.7095947E0,3.986787E2,-5.1376563E-2,3E0,6.425428E-2,-7.495979E0,1.5965636E0,2E0,6.1118122E1,4E0,1E1,2.2E1,6E0,3.3462738E1,3.3586365E1,-7.5240993E0,2.1E1,1.4E1,-7.0084535E-2,8.03252E-1,-7.416008E0,-6.2798254E-2,3.348389E1,1.5E1,-7.510797E0,-6.996906E-2,3.3384098E1,2.596397E2,-7.674106E0,-7.7490516E0,-5.0789364E-2,3.3572475E1,1.8886583E2,2.1E1,3.3490868E1,3.3560528E1,-7.4936075E0,5.941006E-2,-7.4782143E0,5.597262E2,-5.721584E-2,-2.7556686E-2,-5.0874658E-2,-5.260266E-2,7.938388E-2,-5.283711E-2,7.008548E-2,4.2285003E-2,-4.115374E-3,-7.135017E-2,6.864232E-2,-1.8759167E-2,-4.1306976E-2,5.3666245E-2,4.9498915E-3,8.666395E-3,-7.805906E-2,3.9474475E-3,-7.503186E-2,2.6565148E-2,4.810446E-2,2.0159088E-2,-2.26825E-2,2.5966192E-2,-4.471229E-2,4.7489997E-2,-4.766338E-2,-6.701695E-2,2.117478E-2,4.2659633E-2,-6.462143E-2,5.748533E-2,1.949599E-2,1.7909968E-2,5.2553095E-2,3.7852712E-2,5.4048587E-2],"split_indices":[0,0,0,0,3,6,0,2,2,3,5,0,0,3,0,5,0,3,0,2,2,2,3,4,4,5,2,2,0,0,5,0,4,2,5,0,4,0,5,5,0,4,0,2,4,4,5,0,5,0,0,0,0,0,0,0,0,0,0,0,0,0,0,0,0,0,0,0,0,0,0,0,0,0,0,0,0,0,0,0,0,0,0,0,0,0,0],"split_type":[0,0,0,0,0,0,0,0,0,0,0,0,0,0,0,0,0,0,0,0,0,0,0,0,0,0,0,0,0,0,0,0,0,0,0,0,0,0,0,0,0,0,0,0,0,0,0,0,0,0,0,0,0,0,0,0,0,0,0,0,0,0,0,0,0,0,0,0,0,0,0,0,0,0,0,0,0,0,0,0,0,0,0,0,0,0,0],"sum_hessian":[3.298378E3,2.3864646E3,9.1191327E2,1.8664009E3,5.2006384E2,3.5753098E2,5.5438226E2,8.9501514E2,9.7138574E2,1.6550925E2,3.545546E2,3.5608344E2,1.4475362E0,1.7173141E2,3.8265088E2,8.184241E2,7.6591095E1,5.9495697E1,9.1189E2,7.2717026E1,9.279222E1,8.583208E1,2.687225E2,1.5997806E2,1.961054E2,9.188021E1,7.985121E1,7.2774097E2,9.0683105E1,1.702828E1,5.9562813E1,5.464003E0,5.4031693E1,2.0341581E1,8.9154846E2,4.7742796E0,6.794274E1,5.480287E1,3.7989346E1,8.400199E1,1.8300809E0,2.2372357E2,4.499893E1,8.094561E1,7.903244E1,1.435084E2,5.259699E1,8.412866E1,7.751544E0,7.861105E1,1.2401572E0,4.8915546E2,2.3858553E2,2.2167885E0,1.4811493E1,4.891724E1,1.0645572E1,2.6088772E1,2.7942923E1,4.992131E0,1.5349451E1,7.530139E2,1.385345E2,1.9248247E1,4.86945E1,4.8774273E1,6.0285993E0,9.694728E0,2.8294619E1,3.475149E1,4.92505E1,1.8885966E2,3.486391E1,1.383049E1,3.1168442E1,7.972607E1,1.2195415E0,4.8103905E0,7.422205E1,1.4058337E2,2.9250333E0,4.714992E1,5.447068E0,4.2908716E0,3.4606726E0,1.6652273E1,6.195878E1],"tree_param":{"num_deleted":"0","num_feature":"7","num_nodes":"87","size_leaf_vector":"1"}},{"base_weights":[-7.982445E-4,-3.8238624E-1,1.0146786E0,-5.6381744E-1,4.1824456E-2,7.266035E-1,1.2017035E0,-7.07296E-1,-3.998224E-1,5.4601014E-1,-4.7234762E-2,7.365191E-1,-5.0123405E-2,1.0550833E0,6.325164E-2,-8.360854E-1,-4.948682E-1,-5.2774316E-1,-1.2308453E-1,2.5523746E-1,1.1079913E0,1.1049576E-1,-3.4304145E-1,5.893004E-1,8.5376865E-1,1.1356511E0,9.49603E-1,-7.25903E-1,-6.4861275E-2,-4.004687E-1,-1.1018212E0,-6.9014144E-1,-1.6588229E-1,5.5152178E-2,-7.44323E-2,4.5614722E-1,-8.182025E-2,1.2086648E0,-5.243018E-2,1.5308411E-1,-6.747341E-2,-9.438675E-1,-2.3895627E-2,8.8110185E-1,2.868702E-1,7.7419764E-1,1.0535871E0,9.5370734E-1,6.094504E-2,9.968254E-1,-5.5610936E-2,-1.7932165E-2,-4.3111857E-2,-3.4234874E-2,-7.7846926E-4,-7.186961E-2,6.204598E-2,-2.0730931E-2,-5.9031088E-2,8.930396E-3,-6.02537E-2,-7.214087E-2,9.107637E-3,3.739277E-2,-1.846584E-2,2.6479779E-2,6.654432E-2,1.6276613E-2,-8.505424E-3,6.668737E-2,-6.802831E-2,9.397146E-3,-5.7208817E-2,4.6026893E-2,-4.6559405E-2,-8.526998E-2,1.9064823E-2,4.126999E-2,-6.27363E-2,5.6198098E-2,1.8763855E-2,3.2269105E-2,5.932351E-2,3.664532E-2,5.2767094E-2],"categories":[],"categories_nodes":[],"categories_segments":[],"categories_sizes":[],"default_left":[0,0,0,0,0,0,0,0,0,0,0,0,0,0,0,0,0,0,0,0,0,0,0,0,0,0,0,0,0,0,0,0,0,0,0,0,0,0,0,0,0,0,0,0,0,0,0,0,0,0,0,0,0,0,0,0,0,0,0,0,0,0,0,0,0,0,0,0,0,0,0,0,0,0,0,0,0,0,0,0,0,0,0,0,0],"id":16,"left_children":[1,3,5,7,9,11,13,15,17,19,21,23,-1,25,-1,27,29,31,33,35,37,39,41,43,45,47,49,51,-1,53,55,57,59,61,-1,63,-1,65,-1,67,-1,69,71,73,75,77,79,81,-1,83,-1,-1,-1,-1,-1,-1,-1,-1,-1,-1,-1,-1,-1,-1,-1,-1,-1,-1,-1,-1,-1,-1,-1,-1,-1,-1,-1,-1,-1,-1,-1,-1,-1,-1,-1],"loss_changes":[1.262135E3,1.8224023E2,4.7058655E1,3.8737915E1,3.1913952E1,6.786072E0,3.659912E0,2.374939E1,2.7411194E1,1.71515E1,2.824134E1,5.5609283E0,0E0,3.516693E-1,0E0,2.692218E1,1.8799255E1,3.106009E1,6.0117744E1,2.7962141E1,9.100891E0,2.4767168E1,4.033475E1,1.3776943E1,2.2582397E0,2.0531464E-1,8.798256E0,2.1967255E1,0E0,3.1953758E1,3.686792E1,4.8950256E1,5.951465E1,4.1954105E1,0E0,1.6052448E1,0E0,2.1947289E0,0E0,2.1496784E1,0E0,7.1084854E1,3.3079E1,6.605335E0,1.5615379E1,1.5791595E1,2.074337E0,1.5985584E0,0E0,4.27063E-1,0E0,0E0,0E0,0E0,0E0,0E0,0E0,0E0,0E0,0E0,0E0,0E0,0E0,0E0,0E0,0E0,0E0,0E0,0E0,0E0,0E0,0E0,0E0,0E0,0E0,0E0,0E0,0E0,0E0,0E0,0E0,0E0,0E0,0E0,0E0],"parents":[2147483647,0,0,1,1,2,2,3,3,4,4,5,5,6,6,7,7,8,8,9,9,10,10,11,11,13,13,15,15,16,16,17,17,18,18,19,19,20,20,21,21,22,22,23,23,24,24,25,25,26,26,27,27,29,29,30,30,31,31,32,32,33,33,35,35,37,37,39,39,41,41,42,42,43,43,44,44,45,45,46,46,47,47,49,49],"right_children":[2,4,6,8,10,12,14,16,18,20,22,24,-1,26,-1,28,30,32,34,36,38,40,42,44,46,48,50,52,-1,54,56,58,60,62,-1,64,-1,66,-1,68,-1,70,72,74,76,78,80,82,-1,84,-1,-1,-1,-1,-1,-1,-1,-1,-1,-1,-1,-1,-1,-1,-1,-1,-1,-1,-1,-1,-1,-1,-1,-1,-1,-1,-1,-1,-1,-1,-1,-1,-1,-1,-1],"split_conditions":[3.0893198E2,1.402724E2,5.037496E2,6.0555847E1,-7.7317204E0,1E0,7.0136835E2,3.354679E1,5E0,3.360484E1,1.4E1,3.986787E2,-5.0123405E-2,3E0,6.325164E-2,3.3505154E1,4.874189E1,1.1332701E2,1.2014882E2,3.3555367E1,3.3695705E1,3.3654854E1,1.8649966E2,3.3462738E1,3.3586365E1,1E0,2.1E1,1.064176E1,-6.4861275E-2,2.7938744E1,-7.365777E0,-7.576479E0,1.5E1,3.339452E1,-7.44323E-2,1.4E1,-8.182025E-2,3E0,-5.243018E-2,-7.5668626E0,-6.747341E-2,1.4233066E2,2.6826254E2,2.1E1,1E0,3.3560528E1,-7.4936075E0,1.5E1,6.094504E-2,5.597262E2,-5.5610936E-2,-1.7932165E-2,-4.3111857E-2,-3.4234874E-2,-7.7846926E-4,-7.186961E-2,6.204598E-2,-2.0730931E-2,-5.9031088E-2,8.930396E-3,-6.02537E-2,-7.214087E-2,9.107637E-3,3.739277E-2,-1.846584E-2,2.6479779E-2,6.654432E-2,1.6276613E-2,-8.505424E-3,6.668737E-2,-6.802831E-2,9.397146E-3,-5.7208817E-2,4.6026893E-2,-4.6559405E-2,-8.526998E-2,1.9064823E-2,4.126999E-2,-6.27363E-2,5.6198098E-2,1.8763855E-2,3.2269105E-2,5.932351E-2,3.664532E-2,5.2767094E-2],"split_indices":[0,0,0,0,5,6,0,4,3,4,2,0,0,3,0,4,0,0,0,4,4,4,0,4,4,3,2,0,0,0,5,5,2,4,0,2,0,3,0,5,0,0,0,2,3,4,5,2,0,0,0,0,0,0,0,0,0,0,0,0,0,0,0,0,0,0,0,0,0,0,0,0,0,0,0,0,0,0,0,0,0,0,0,0,0],"split_type":[0,0,0,0,0,0,0,0,0,0,0,0,0,0,0,0,0,0,0,0,0,0,0,0,0,0,0,0,0,0,0,0,0,0,0,0,0,0,0,0,0,0,0,0,0,0,0,0,0,0,0,0,0,0,0,0,0,0,0,0,0,0,0,0,0,0,0,0,0,0,0,0,0,0,0,0,0,0,0,0,0,0,0,0,0],"sum_hessian":[3.2551738E3,2.3665234E3,8.8865027E2,1.657357E3,7.091663E2,3.5174356E2,5.3690674E2,8.8220593E2,7.751512E2,1.0569134E2,6.03475E2,3.5030872E2,1.4348596E0,1.6727989E2,3.6962683E2,5.473975E2,3.348084E2,5.2949E2,2.4566118E2,7.0610954E1,3.5080383E1,3.940079E2,2.0946709E2,1.5797772E2,1.9233098E2,8.930253E1,7.7977356E1,4.439069E2,1.034906E2,2.9118082E2,4.3627586E1,3.6484518E2,1.646448E2,2.1814758E2,2.7513592E1,6.451747E1,6.093484E0,3.3935757E1,1.1446284E0,3.8370993E2,1.0297988E1,7.1986786E1,1.374803E2,7.942789E1,7.854984E1,1.4104071E2,5.129027E1,3.1944105E1,5.735842E1,7.673638E1,1.2409799E0,1.2115843E2,3.2274847E2,1.670465E2,1.2413432E2,3.849943E1,5.1281576E0,2.3479599E2,1.300492E2,1.2427574E2,4.0369064E1,1.6239716E1,2.0190788E2,4.774059E1,1.677688E1,5.9897094E0,2.7946047E1,2.5020111E2,1.335088E2,1.0793007E1,6.119378E1,1.16317566E2,2.1162737E1,7.8217896E1,1.2099855E0,2.7824812E0,7.5767365E1,1.3814758E2,2.893126E0,4.587384E1,5.4164295E0,1.5364498E1,1.6579609E1,1.6380827E1,6.0355553E1],"tree_param":{"num_deleted":"0","num_feature":"7","num_nodes":"85","size_leaf_vector":"1"}},{"base_weights":[-8.2798884E-4,-3.6671326E-1,9.9036115E-1,-5.417693E-1,3.965121E-2,7.015758E-1,1.1810185E0,-6.8240774E-1,-3.8247496E-1,-2.5296628E-1,1.8882513E-1,7.113124E-1,-4.8934143E-2,1.0310949E0,6.2319916E-2,-8.097104E-1,-4.744992E-1,-7.456208E-2,-3.5008568E-1,-1.8186705E-1,-7.134365E-2,6.9532967E-1,7.776648E-2,4.4545984E-1,7.748969E-1,1.112686E0,9.248776E-1,-7.0016825E-1,-6.3877046E-2,3.018365E-1,-5.471832E-1,9.047236E-2,-3.7960574E-1,1.6948988E-1,-4.3106872E-1,4.1552067E-1,1.2141674E0,1.275518E-1,-6.854284E-2,6.6492355E-1,-7.4881685E-1,1.9999623E-2,7.901376E-1,5.7105053E-2,6.9930416E-1,9.7192734E-1,-5.4098316E-2,-4.589563E-2,-2.3120338E-2,-2.3655035E-2,7.134969E-2,-7.3212616E-2,-2.2199137E-2,-2.359115E-2,2.8399876E-3,-9.059177E-3,3.415357E-2,-1.0255289E-2,-7.253145E-2,3.961261E-2,-8.977871E-2,3.25305E-2,7.100232E-2,4.3906134E-2,3.0949293E-3,2.3611572E-2,6.407885E-2,3.6899436E-2,-8.4957175E-2,3.7352797E-2,-7.605832E-2,3.6532857E-2,5.0003637E-2,1.4588769E-2,5.0911106E-2,3.547833E-2,5.1539388E-2],"categories":[],"categories_nodes":[],"categories_segments":[],"categories_sizes":[],"default_left":[0,0,0,0,0,0,0,0,0,0,0,0,0,0,0,0,0,0,0,0,0,0,0,0,0,0,0,0,0,0,0,0,0,0,0,0,0,0,0,0,0,0,0,0,0,0,0,0,0,0,0,0,0,0,0,0,0,0,0,0,0,0,0,0,0,0,0,0,0,0,0,0,0,0,0,0,0],"id":17,"left_children":[1,3,5,7,9,11,13,15,17,19,21,23,-1,25,-1,27,29,-1,31,33,-1,35,37,39,41,43,45,47,-1,49,51,-1,53,55,57,59,61,63,-1,65,67,69,71,-1,73,75,-1,-1,-1,-1,-1,-1,-1,-1,-1,-1,-1,-1,-1,-1,-1,-1,-1,-1,-1,-1,-1,-1,-1,-1,-1,-1,-1,-1,-1,-1,-1],"loss_changes":[1.165899E3,1.6705557E2,4.6894653E1,3.6506073E1,3.0948164E1,6.375412E0,3.8179321E0,2.2651733E1,2.7195747E1,1.972627E1,2.6352966E1,5.4989777E0,0E0,3.9115906E-1,0E0,2.6697266E1,1.895253E1,0E0,4.857701E1,1.9942379E1,0E0,1.1733192E1,2.8023932E1,1.8603836E1,3.1785126E0,2.6846313E-1,8.333511E0,2.227562E1,0E0,2.6090027E1,2.8196854E1,0E0,2.9884674E1,1.7211681E1,3.0353764E1,4.830551E1,2.442337E0,1.8386879E1,0E0,6.3918934E0,1.7070618E1,8.4426155E0,2.6673126E0,0E0,7.958436E-1,4.4039917E-1,0E0,0E0,0E0,0E0,0E0,0E0,0E0,0E0,0E0,0E0,0E0,0E0,0E0,0E0,0E0,0E0,0E0,0E0,0E0,0E0,0E0,0E0,0E0,0E0,0E0,0E0,0E0,0E0,0E0,0E0,0E0],"parents":[2147483647,0,0,1,1,2,2,3,3,4,4,5,5,6,6,7,7,8,8,9,9,10,10,11,11,13,13,15,15,16,16,18,18,19,19,21,21,22,22,23,23,24,24,25,25,26,26,27,27,29,29,30,30,32,32,33,33,34,34,35,35,36,36,37,37,39,39,40,40,41,41,42,42,44,44,45,45],"right_children":[2,4,6,8,10,12,14,16,18,20,22,24,-1,26,-1,28,30,-1,32,34,-1,36,38,40,42,44,46,48,-1,50,52,-1,54,56,58,60,62,64,-1,66,68,70,72,-1,74,76,-1,-1,-1,-1,-1,-1,-1,-1,-1,-1,-1,-1,-1,-1,-1,-1,-1,-1,-1,-1,-1,-1,-1,-1,-1,-1,-1,-1,-1,-1,-1],"split_conditions":[3.0893198E2,1.402724E2,5.037496E2,6.0555847E1,3E0,1E0,7.0136835E2,3.354679E1,-7.7801275E0,2.1E1,-7.7317204E0,3.4435715E2,-4.8934143E-2,3E0,6.2319916E-2,3.3505154E1,3.3551933E1,-7.456208E-2,-7.7757163E0,1E0,-7.134365E-2,3.360484E1,3.3654854E1,-7.5527835E0,1E0,-7.5240993E0,2.1E1,4E0,-6.3877046E-2,3.3550823E1,3.3561573E1,9.047236E-2,6E0,3.3550823E1,3.3555367E1,3.3505154E1,1.5E1,1E0,-6.854284E-2,-7.571391E0,3.3396496E1,1E0,3.3591732E1,5.7105053E-2,2E1,5.597262E2,-5.4098316E-2,-4.589563E-2,-2.3120338E-2,-2.3655035E-2,7.134969E-2,-7.3212616E-2,-2.2199137E-2,-2.359115E-2,2.8399876E-3,-9.059177E-3,3.415357E-2,-1.0255289E-2,-7.253145E-2,3.961261E-2,-8.977871E-2,3.25305E-2,7.100232E-2,4.3906134E-2,3.0949293E-3,2.3611572E-2,6.407885E-2,3.6899436E-2,-8.4957175E-2,3.7352797E-2,-7.605832E-2,3.6532857E-2,5.0003637E-2,1.4588769E-2,5.0911106E-2,3.547833E-2,5.1539388E-2],"split_indices":[0,0,0,0,3,6,0,4,5,2,5,0,0,3,0,4,4,0,5,3,0,4,4,5,2,5,2,3,0,4,4,0,3,4,4,4,2,2,0,5,4,3,4,0,2,0,0,0,0,0,0,0,0,0,0,0,0,0,0,0,0,0,0,0,0,0,0,0,0,0,0,0,0,0,0,0,0],"split_type":[0,0,0,0,0,0,0,0,0,0,0,0,0,0,0,0,0,0,0,0,0,0,0,0,0,0,0,0,0,0,0,0,0,0,0,0,0,0,0,0,0,0,0,0,0,0,0,0,0,0,0,0,0,0,0,0,0,0,0,0,0,0,0,0,0,0,0,0,0,0,0,0,0,0,0,0,0],"sum_hessian":[3.2128396E3,2.3470754E3,8.65764E2,1.6401771E3,7.068984E2,3.4614453E2,5.1961945E2,8.693545E2,7.7082263E2,2.3845416E2,4.6844418E2,3.4472363E2,1.420899E0,1.6288231E2,3.5673715E2,5.3740564E2,3.3194882E2,2.0599749E1,7.502229E2,2.259256E2,1.2528564E1,8.3295944E1,3.8514825E2,6.808015E1,2.7664346E2,8.676101E1,7.612131E1,4.374692E2,9.993646E1,2.8148014E1,3.038008E2,9.303888E0,7.40919E2,9.3880516E1,1.3204509E2,5.528281E1,2.8013132E1,3.7323315E2,1.191508E1,5.7886074E1,1.0194068E1,5.5204153E0,2.7112308E2,7.935176E1,7.409252E0,7.488143E1,1.2398757E0,2.2685373E2,2.1061548E2,1.7011257E1,1.1136755E1,2.9395506E1,2.744053E2,6.116001E2,1.293189E2,5.617289E1,3.7707626E1,1.0907271E2,2.297238E1,4.7783104E1,7.499705E0,8.608645E0,1.9404488E1,2.9025715E1,3.4420746E2,4.5449726E1,1.2436351E1,4.062165E0,6.1319036E0,4.1010027E0,1.4194124E0,2.1475682E2,5.636624E1,4.0933995E0,3.3158526E0,1.6113443E1,5.8767986E1],"tree_param":{"num_deleted":"0","num_feature":"7","num_nodes":"77","size_leaf_vector":"1"}},{"base_weights":[-7.251466E-4,-3.5145324E-1,9.6673316E-1,-4.881129E-1,1.31351E-1,6.7712766E-1,1.1614524E0,-6.5819705E-1,-3.3539534E-1,-1.4886247E-1,2.622874E-1,6.8667847E-1,-4.78035E-2,1.0079962E0,6.1451912E-2,-7.0809036E-1,-1.2731637E-1,-3.6119077E-1,4.2328754E-1,2.3047745E-1,-4.480091E-1,6.708449E-1,1.3422982E-1,5.421439E-1,8.03437E-1,1.0906355E0,9.010502E-1,-6.281558E-1,-6.748269E-2,1.1980594E0,-5.35837E-1,-3.4064084E-1,-7.57035E-2,1.0560311E0,-6.667523E-2,9.8118937E-1,-6.077235E-2,-3.126169E-2,-1.0482671E0,7.1992874E-1,-4.9796324E-2,-7.51431E-2,1.7450818E-1,8.3430314E-1,2.4507497E-1,7.2440064E-1,1.0054057E0,9.028287E-1,5.887891E-2,9.4792366E-1,-5.267005E-2,-2.3726014E-2,-4.719587E-2,7.8346275E-2,-5.1054765E-2,-4.9348693E-2,6.720706E-2,-1.8060898E-2,5.0939467E-2,7.503392E-2,-6.4029135E-2,-6.275144E-2,6.2447894E-2,-5.2679475E-2,3.531403E-2,8.737108E-3,-7.505993E-2,5.0062602E-3,-7.219223E-2,2.2703478E-2,4.474177E-2,1.46733E-2,-2.0467853E-2,4.3702666E-2,-4.621026E-2,-6.583293E-2,1.8145544E-2,3.8781505E-2,-6.199586E-2,5.3963788E-2,1.6221017E-2,2.9438917E-2,5.727917E-2,2.095268E-2,4.852928E-2],"categories":[],"categories_nodes":[],"categories_segments":[],"categories_sizes":[],"default_left":[0,0,0,0,0,0,0,0,0,0,0,0,0,0,0,0,0,0,0,0,0,0,0,0,0,0,0,0,0,0,0,0,0,0,0,0,0,0,0,0,0,0,0,0,0,0,0,0,0,0,0,0,0,0,0,0,0,0,0,0,0,0,0,0,0,0,0,0,0,0,0,0,0,0,0,0,0,0,0,0,0,0,0,0,0],"id":18,"left_children":[1,3,5,7,9,11,13,15,17,19,21,23,-1,25,-1,27,29,31,33,35,37,39,41,43,45,47,49,51,-1,53,55,57,-1,59,-1,61,63,65,67,69,-1,-1,71,73,75,77,79,81,-1,83,-1,-1,-1,-1,-1,-1,-1,-1,-1,-1,-1,-1,-1,-1,-1,-1,-1,-1,-1,-1,-1,-1,-1,-1,-1,-1,-1,-1,-1,-1,-1,-1,-1,-1,-1],"loss_changes":[1.0769232E3,1.5375516E2,4.68338E1,4.694162E1,1.8922276E1,5.9896545E0,3.9836426E0,2.2635193E1,1.8915703E1,1.8775084E1,1.8280502E1,5.3105774E0,0E0,4.2713928E-1,0E0,3.936023E1,4.1209995E1,2.1463951E1,3.696335E1,1.6065928E1,2.3065159E1,7.551735E0,1.7972523E1,1.3267845E1,2.2451172E0,3.2862854E-1,7.8959084E0,3.3464417E1,0E0,1.6303284E1,5.04871E1,2.5901505E1,0E0,2.6933796E1,0E0,1.3855322E1,4.162814E1,1.7076984E1,1.7318928E1,3.3943214E0,0E0,0E0,1.8389008E1,6.2491646E0,1.4902402E1,1.4794327E1,2.155716E0,1.7085667E0,0E0,4.807968E-1,0E0,0E0,0E0,0E0,0E0,0E0,0E0,0E0,0E0,0E0,0E0,0E0,0E0,0E0,0E0,0E0,0E0,0E0,0E0,0E0,0E0,0E0,0E0,0E0,0E0,0E0,0E0,0E0,0E0,0E0,0E0,0E0,0E0,0E0,0E0],"parents":[2147483647,0,0,1,1,2,2,3,3,4,4,5,5,6,6,7,7,8,8,9,9,10,10,11,11,13,13,15,15,16,16,17,17,18,18,19,19,20,20,21,21,22,22,23,23,24,24,25,25,26,26,27,27,29,29,30,30,31,31,33,33,35,35,36,36,37,37,38,38,39,39,42,42,43,43,44,44,45,45,46,46,47,47,49,49],"right_children":[2,4,6,8,10,12,14,16,18,20,22,24,-1,26,-1,28,30,32,34,36,38,40,42,44,46,48,50,52,-1,54,56,58,-1,60,-1,62,64,66,68,70,-1,-1,72,74,76,78,80,82,-1,84,-1,-1,-1,-1,-1,-1,-1,-1,-1,-1,-1,-1,-1,-1,-1,-1,-1,-1,-1,-1,-1,-1,-1,-1,-1,-1,-1,-1,-1,-1,-1,-1,-1,-1,-1],